<PMML version="2.0">
<Header copyright="Copyright S. Ruggieri 2002, All Rights Reserved">
<Application name="YaDT" version="1.0.0.beta" />
</Header>
<DataDictionary numberOfFields="30">
<DataField name="age" optype="continuous" />
<DataField name="workclass" optype="categorical" />
<DataField name="fnlwgt" optype="continuous" />
<DataField name="education" optype="categorical" />
<DataField name="education-num" optype="continuous" />
<DataField name="marital-status" optype="categorical" />
<DataField name="occupation" optype="categorical" />
<DataField name="relationship" optype="categorical" />
<DataField name="race" optype="categorical" />
<DataField name="sex" optype="categorical" />
<DataField name="capital-gain" optype="continuous" />
<DataField name="capital-loss" optype="continuous" />
<DataField name="hours-per-week" optype="continuous" />
<DataField name="native-country" optype="categorical" />
<DataField name="class" optype="categorical" />
<DataField name="age" optype="continuous" />
<DataField name="workclass" optype="categorical" />
<DataField name="fnlwgt" optype="continuous" />
<DataField name="education" optype="categorical" />
<DataField name="education-num" optype="continuous" />
<DataField name="marital-status" optype="categorical" />
<DataField name="occupation" optype="categorical" />
<DataField name="relationship" optype="categorical" />
<DataField name="race" optype="categorical" />
<DataField name="sex" optype="categorical" />
<DataField name="capital-gain" optype="continuous" />
<DataField name="capital-loss" optype="continuous" />
<DataField name="hours-per-week" optype="continuous" />
<DataField name="native-country" optype="categorical" />
<DataField name="class" optype="categorical" />
</DataDictionary>
<TreeModel modelName="no_name" functionName="classification" algorithmName="YaDT">
<MiningSchema>
<MiningField name="age" usageType="active" />
<MiningField name="workclass" usageType="active" />
<MiningField name="fnlwgt" usageType="active" />
<MiningField name="education" usageType="active" />
<MiningField name="education-num" usageType="active" />
<MiningField name="marital-status" usageType="active" />
<MiningField name="occupation" usageType="active" />
<MiningField name="relationship" usageType="active" />
<MiningField name="race" usageType="active" />
<MiningField name="sex" usageType="active" />
<MiningField name="capital-gain" usageType="active" />
<MiningField name="capital-loss" usageType="active" />
<MiningField name="hours-per-week" usageType="active" />
<MiningField name="native-country" usageType="active" />
<MiningField name="class" usageType="predicted" />
<MiningField name="age" usageType="active" />
<MiningField name="workclass" usageType="active" />
<MiningField name="fnlwgt" usageType="active" />
<MiningField name="education" usageType="active" />
<MiningField name="education-num" usageType="active" />
<MiningField name="marital-status" usageType="active" />
<MiningField name="occupation" usageType="active" />
<MiningField name="relationship" usageType="active" />
<MiningField name="race" usageType="active" />
<MiningField name="sex" usageType="active" />
<MiningField name="capital-gain" usageType="active" />
<MiningField name="capital-loss" usageType="active" />
<MiningField name="hours-per-week" usageType="active" />
<MiningField name="native-country" usageType="active" />
<MiningField name="class" usageType="predicted" />
</MiningSchema>
<Node score="" recordCount="48842">
<True />
<ScoreDistribution value="&lt;=50K" recordCount ="37155.000" />
<ScoreDistribution value="&gt;50K" recordCount ="11687.000" />
<Node score="" recordCount="46787">
<SimplePredicate field="capital-gain" operator="lessOrEqual" value="6849" />
<ScoreDistribution value="&lt;=50K" recordCount ="37127.000" />
<ScoreDistribution value="&gt;50K" recordCount ="9660.000" />
<Node score="&lt;=50K" recordCount="6454">
<SimplePredicate field="marital-status" operator="equal" value="Divorced" />
<ScoreDistribution value="&lt;=50K" recordCount ="5956.000" />
<ScoreDistribution value="&gt;50K" recordCount ="498.000" />
</Node>
<Node score="&lt;=50K" recordCount="35">
<SimplePredicate field="marital-status" operator="equal" value="Married-AF-spouse" />
<ScoreDistribution value="&lt;=50K" recordCount ="23.000" />
<ScoreDistribution value="&gt;50K" recordCount ="12.000" />
</Node>
<Node score="" recordCount="20787">
<SimplePredicate field="marital-status" operator="equal" value="Married-civ-spouse" />
<ScoreDistribution value="&lt;=50K" recordCount ="12383.000" />
<ScoreDistribution value="&gt;50K" recordCount ="8404.000" />
<Node score="" recordCount="19662">
<SimplePredicate field="capital-loss" operator="lessOrEqual" value="1844" />
<ScoreDistribution value="&lt;=50K" recordCount ="12210.000" />
<ScoreDistribution value="&gt;50K" recordCount ="7452.000" />
<Node score="" recordCount="13914">
<SimplePredicate field="education-num" operator="lessOrEqual" value="11" />
<ScoreDistribution value="&lt;=50K" recordCount ="10020.000" />
<ScoreDistribution value="&gt;50K" recordCount ="3894.000" />
<Node score="" recordCount="2488">
<SimplePredicate field="education-num" operator="lessOrEqual" value="8" />
<ScoreDistribution value="&lt;=50K" recordCount ="2229.000" />
<ScoreDistribution value="&gt;50K" recordCount ="259.000" />
<Node score="&lt;=50K" recordCount="2447">
<SimplePredicate field="capital-gain" operator="lessOrEqual" value="4101" />
<ScoreDistribution value="&lt;=50K" recordCount ="2211.000" />
<ScoreDistribution value="&gt;50K" recordCount ="236.000" />
</Node>
<Node score="" recordCount="41">
<SimplePredicate field="capital-gain" operator="greatherThan" value="4101" />
<ScoreDistribution value="&lt;=50K" recordCount ="18.000" />
<ScoreDistribution value="&gt;50K" recordCount ="23.000" />
<Node score="" recordCount="25">
<SimplePredicate field="capital-gain" operator="lessOrEqual" value="5060" />
<ScoreDistribution value="&lt;=50K" recordCount ="18.000" />
<ScoreDistribution value="&gt;50K" recordCount ="7.000" />
<Node score="" recordCount="10">
<SimplePredicate field="capital-gain" operator="lessOrEqual" value="4416" />
<ScoreDistribution value="&lt;=50K" recordCount ="3.000" />
<ScoreDistribution value="&gt;50K" recordCount ="7.000" />
<Node score="&gt;50K" recordCount="0">
<SimplePredicate field="native-country" operator="equal" value="Cambodia" />
<ScoreDistribution value="&lt;=50K" recordCount ="0.000" />
<ScoreDistribution value="&gt;50K" recordCount ="0.000" />
</Node>
<Node score="&gt;50K" recordCount="0">
<SimplePredicate field="native-country" operator="equal" value="Canada" />
<ScoreDistribution value="&lt;=50K" recordCount ="0.000" />
<ScoreDistribution value="&gt;50K" recordCount ="0.000" />
</Node>
<Node score="&gt;50K" recordCount="0">
<SimplePredicate field="native-country" operator="equal" value="China" />
<ScoreDistribution value="&lt;=50K" recordCount ="0.000" />
<ScoreDistribution value="&gt;50K" recordCount ="0.000" />
</Node>
<Node score="&gt;50K" recordCount="0">
<SimplePredicate field="native-country" operator="equal" value="Columbia" />
<ScoreDistribution value="&lt;=50K" recordCount ="0.000" />
<ScoreDistribution value="&gt;50K" recordCount ="0.000" />
</Node>
<Node score="&gt;50K" recordCount="0">
<SimplePredicate field="native-country" operator="equal" value="Cuba" />
<ScoreDistribution value="&lt;=50K" recordCount ="0.000" />
<ScoreDistribution value="&gt;50K" recordCount ="0.000" />
</Node>
<Node score="&gt;50K" recordCount="0">
<SimplePredicate field="native-country" operator="equal" value="Dominican-Republic" />
<ScoreDistribution value="&lt;=50K" recordCount ="0.000" />
<ScoreDistribution value="&gt;50K" recordCount ="0.000" />
</Node>
<Node score="&gt;50K" recordCount="0">
<SimplePredicate field="native-country" operator="equal" value="Ecuador" />
<ScoreDistribution value="&lt;=50K" recordCount ="0.000" />
<ScoreDistribution value="&gt;50K" recordCount ="0.000" />
</Node>
<Node score="&gt;50K" recordCount="0">
<SimplePredicate field="native-country" operator="equal" value="El-Salvador" />
<ScoreDistribution value="&lt;=50K" recordCount ="0.000" />
<ScoreDistribution value="&gt;50K" recordCount ="0.000" />
</Node>
<Node score="&gt;50K" recordCount="0">
<SimplePredicate field="native-country" operator="equal" value="England" />
<ScoreDistribution value="&lt;=50K" recordCount ="0.000" />
<ScoreDistribution value="&gt;50K" recordCount ="0.000" />
</Node>
<Node score="&gt;50K" recordCount="0">
<SimplePredicate field="native-country" operator="equal" value="France" />
<ScoreDistribution value="&lt;=50K" recordCount ="0.000" />
<ScoreDistribution value="&gt;50K" recordCount ="0.000" />
</Node>
<Node score="&gt;50K" recordCount="0">
<SimplePredicate field="native-country" operator="equal" value="Germany" />
<ScoreDistribution value="&lt;=50K" recordCount ="0.000" />
<ScoreDistribution value="&gt;50K" recordCount ="0.000" />
</Node>
<Node score="&gt;50K" recordCount="1">
<SimplePredicate field="native-country" operator="equal" value="Greece" />
<ScoreDistribution value="&lt;=50K" recordCount ="0.000" />
<ScoreDistribution value="&gt;50K" recordCount ="1.000" />
</Node>
<Node score="&gt;50K" recordCount="0">
<SimplePredicate field="native-country" operator="equal" value="Guatemala" />
<ScoreDistribution value="&lt;=50K" recordCount ="0.000" />
<ScoreDistribution value="&gt;50K" recordCount ="0.000" />
</Node>
<Node score="&gt;50K" recordCount="0">
<SimplePredicate field="native-country" operator="equal" value="Haiti" />
<ScoreDistribution value="&lt;=50K" recordCount ="0.000" />
<ScoreDistribution value="&gt;50K" recordCount ="0.000" />
</Node>
<Node score="&gt;50K" recordCount="0">
<SimplePredicate field="native-country" operator="equal" value="Holand-Netherlands" />
<ScoreDistribution value="&lt;=50K" recordCount ="0.000" />
<ScoreDistribution value="&gt;50K" recordCount ="0.000" />
</Node>
<Node score="&gt;50K" recordCount="0">
<SimplePredicate field="native-country" operator="equal" value="Honduras" />
<ScoreDistribution value="&lt;=50K" recordCount ="0.000" />
<ScoreDistribution value="&gt;50K" recordCount ="0.000" />
</Node>
<Node score="&gt;50K" recordCount="0">
<SimplePredicate field="native-country" operator="equal" value="Hong" />
<ScoreDistribution value="&lt;=50K" recordCount ="0.000" />
<ScoreDistribution value="&gt;50K" recordCount ="0.000" />
</Node>
<Node score="&gt;50K" recordCount="0">
<SimplePredicate field="native-country" operator="equal" value="Hungary" />
<ScoreDistribution value="&lt;=50K" recordCount ="0.000" />
<ScoreDistribution value="&gt;50K" recordCount ="0.000" />
</Node>
<Node score="&gt;50K" recordCount="0">
<SimplePredicate field="native-country" operator="equal" value="India" />
<ScoreDistribution value="&lt;=50K" recordCount ="0.000" />
<ScoreDistribution value="&gt;50K" recordCount ="0.000" />
</Node>
<Node score="&gt;50K" recordCount="0">
<SimplePredicate field="native-country" operator="equal" value="Iran" />
<ScoreDistribution value="&lt;=50K" recordCount ="0.000" />
<ScoreDistribution value="&gt;50K" recordCount ="0.000" />
</Node>
<Node score="&gt;50K" recordCount="0">
<SimplePredicate field="native-country" operator="equal" value="Ireland" />
<ScoreDistribution value="&lt;=50K" recordCount ="0.000" />
<ScoreDistribution value="&gt;50K" recordCount ="0.000" />
</Node>
<Node score="&gt;50K" recordCount="0">
<SimplePredicate field="native-country" operator="equal" value="Italy" />
<ScoreDistribution value="&lt;=50K" recordCount ="0.000" />
<ScoreDistribution value="&gt;50K" recordCount ="0.000" />
</Node>
<Node score="&gt;50K" recordCount="0">
<SimplePredicate field="native-country" operator="equal" value="Jamaica" />
<ScoreDistribution value="&lt;=50K" recordCount ="0.000" />
<ScoreDistribution value="&gt;50K" recordCount ="0.000" />
</Node>
<Node score="&gt;50K" recordCount="0">
<SimplePredicate field="native-country" operator="equal" value="Japan" />
<ScoreDistribution value="&lt;=50K" recordCount ="0.000" />
<ScoreDistribution value="&gt;50K" recordCount ="0.000" />
</Node>
<Node score="&gt;50K" recordCount="0">
<SimplePredicate field="native-country" operator="equal" value="Laos" />
<ScoreDistribution value="&lt;=50K" recordCount ="0.000" />
<ScoreDistribution value="&gt;50K" recordCount ="0.000" />
</Node>
<Node score="&lt;=50K" recordCount="2">
<SimplePredicate field="native-country" operator="equal" value="Mexico" />
<ScoreDistribution value="&lt;=50K" recordCount ="2.000" />
<ScoreDistribution value="&gt;50K" recordCount ="0.000" />
</Node>
<Node score="&gt;50K" recordCount="0">
<SimplePredicate field="native-country" operator="equal" value="Nicaragua" />
<ScoreDistribution value="&lt;=50K" recordCount ="0.000" />
<ScoreDistribution value="&gt;50K" recordCount ="0.000" />
</Node>
<Node score="&gt;50K" recordCount="0">
<SimplePredicate field="native-country" operator="equal" value="Outlying-US(Guam-USVI-etc)" />
<ScoreDistribution value="&lt;=50K" recordCount ="0.000" />
<ScoreDistribution value="&gt;50K" recordCount ="0.000" />
</Node>
<Node score="&gt;50K" recordCount="0">
<SimplePredicate field="native-country" operator="equal" value="Peru" />
<ScoreDistribution value="&lt;=50K" recordCount ="0.000" />
<ScoreDistribution value="&gt;50K" recordCount ="0.000" />
</Node>
<Node score="&gt;50K" recordCount="0">
<SimplePredicate field="native-country" operator="equal" value="Philippines" />
<ScoreDistribution value="&lt;=50K" recordCount ="0.000" />
<ScoreDistribution value="&gt;50K" recordCount ="0.000" />
</Node>
<Node score="&gt;50K" recordCount="0">
<SimplePredicate field="native-country" operator="equal" value="Poland" />
<ScoreDistribution value="&lt;=50K" recordCount ="0.000" />
<ScoreDistribution value="&gt;50K" recordCount ="0.000" />
</Node>
<Node score="&gt;50K" recordCount="0">
<SimplePredicate field="native-country" operator="equal" value="Portugal" />
<ScoreDistribution value="&lt;=50K" recordCount ="0.000" />
<ScoreDistribution value="&gt;50K" recordCount ="0.000" />
</Node>
<Node score="&gt;50K" recordCount="0">
<SimplePredicate field="native-country" operator="equal" value="Puerto-Rico" />
<ScoreDistribution value="&lt;=50K" recordCount ="0.000" />
<ScoreDistribution value="&gt;50K" recordCount ="0.000" />
</Node>
<Node score="&gt;50K" recordCount="0">
<SimplePredicate field="native-country" operator="equal" value="Scotland" />
<ScoreDistribution value="&lt;=50K" recordCount ="0.000" />
<ScoreDistribution value="&gt;50K" recordCount ="0.000" />
</Node>
<Node score="&gt;50K" recordCount="0">
<SimplePredicate field="native-country" operator="equal" value="South" />
<ScoreDistribution value="&lt;=50K" recordCount ="0.000" />
<ScoreDistribution value="&gt;50K" recordCount ="0.000" />
</Node>
<Node score="&gt;50K" recordCount="0">
<SimplePredicate field="native-country" operator="equal" value="Taiwan" />
<ScoreDistribution value="&lt;=50K" recordCount ="0.000" />
<ScoreDistribution value="&gt;50K" recordCount ="0.000" />
</Node>
<Node score="&gt;50K" recordCount="0">
<SimplePredicate field="native-country" operator="equal" value="Thailand" />
<ScoreDistribution value="&lt;=50K" recordCount ="0.000" />
<ScoreDistribution value="&gt;50K" recordCount ="0.000" />
</Node>
<Node score="&gt;50K" recordCount="0">
<SimplePredicate field="native-country" operator="equal" value="Trinadad&amp;Tobago" />
<ScoreDistribution value="&lt;=50K" recordCount ="0.000" />
<ScoreDistribution value="&gt;50K" recordCount ="0.000" />
</Node>
<Node score="&gt;50K" recordCount="7">
<SimplePredicate field="native-country" operator="equal" value="United-States" />
<ScoreDistribution value="&lt;=50K" recordCount ="1.000" />
<ScoreDistribution value="&gt;50K" recordCount ="6.000" />
</Node>
<Node score="&gt;50K" recordCount="0">
<SimplePredicate field="native-country" operator="equal" value="Vietnam" />
<ScoreDistribution value="&lt;=50K" recordCount ="0.000" />
<ScoreDistribution value="&gt;50K" recordCount ="0.000" />
</Node>
<Node score="&gt;50K" recordCount="0">
<SimplePredicate field="native-country" operator="equal" value="Yugoslavia" />
<ScoreDistribution value="&lt;=50K" recordCount ="0.000" />
<ScoreDistribution value="&gt;50K" recordCount ="0.000" />
</Node>
</Node>
<Node score="&lt;=50K" recordCount="15">
<SimplePredicate field="capital-gain" operator="greatherThan" value="4416" />
<ScoreDistribution value="&lt;=50K" recordCount ="15.000" />
<ScoreDistribution value="&gt;50K" recordCount ="0.000" />
</Node>
</Node>
<Node score="&gt;50K" recordCount="16">
<SimplePredicate field="capital-gain" operator="greatherThan" value="5060" />
<ScoreDistribution value="&lt;=50K" recordCount ="0.000" />
<ScoreDistribution value="&gt;50K" recordCount ="16.000" />
</Node>
</Node>
</Node>
<Node score="" recordCount="11426">
<SimplePredicate field="education-num" operator="greatherThan" value="8" />
<ScoreDistribution value="&lt;=50K" recordCount ="7791.000" />
<ScoreDistribution value="&gt;50K" recordCount ="3635.000" />
<Node score="" recordCount="11326">
<SimplePredicate field="capital-gain" operator="lessOrEqual" value="5060" />
<ScoreDistribution value="&lt;=50K" recordCount ="7786.000" />
<ScoreDistribution value="&gt;50K" recordCount ="3540.000" />
<Node score="&lt;=50K" recordCount="1660">
<SimplePredicate field="age" operator="lessOrEqual" value="29" />
<ScoreDistribution value="&lt;=50K" recordCount ="1435.000" />
<ScoreDistribution value="&gt;50K" recordCount ="225.000" />
</Node>
<Node score="" recordCount="9666">
<SimplePredicate field="age" operator="greatherThan" value="29" />
<ScoreDistribution value="&lt;=50K" recordCount ="6351.000" />
<ScoreDistribution value="&gt;50K" recordCount ="3315.000" />
<Node score="&lt;=50K" recordCount="946">
<SimplePredicate field="hours-per-week" operator="lessOrEqual" value="34" />
<ScoreDistribution value="&lt;=50K" recordCount ="805.000" />
<ScoreDistribution value="&gt;50K" recordCount ="141.000" />
</Node>
<Node score="" recordCount="8720">
<SimplePredicate field="hours-per-week" operator="greatherThan" value="34" />
<ScoreDistribution value="&lt;=50K" recordCount ="5546.000" />
<ScoreDistribution value="&gt;50K" recordCount ="3174.000" />
<Node score="&lt;=50K" recordCount="5133">
<SimplePredicate field="education-num" operator="lessOrEqual" value="9" />
<ScoreDistribution value="&lt;=50K" recordCount ="3526.000" />
<ScoreDistribution value="&gt;50K" recordCount ="1607.000" />
</Node>
<Node score="" recordCount="3587">
<SimplePredicate field="education-num" operator="greatherThan" value="9" />
<ScoreDistribution value="&lt;=50K" recordCount ="2020.000" />
<ScoreDistribution value="&gt;50K" recordCount ="1567.000" />
<Node score="" recordCount="3544">
<SimplePredicate field="capital-loss" operator="lessOrEqual" value="1510" />
<ScoreDistribution value="&lt;=50K" recordCount ="1978.000" />
<ScoreDistribution value="&gt;50K" recordCount ="1566.000" />
<Node score="&gt;50K" recordCount="49">
<SimplePredicate field="native-country" operator="equal" value="Cambodia" />
<ScoreDistribution value="&lt;=50K" recordCount ="1.023" />
<ScoreDistribution value="&gt;50K" recordCount ="2.016" />
</Node>
<Node score="&gt;50K" recordCount="61">
<SimplePredicate field="native-country" operator="equal" value="Canada" />
<ScoreDistribution value="&lt;=50K" recordCount ="5.116" />
<ScoreDistribution value="&gt;50K" recordCount ="10.081" />
</Node>
<Node score="&lt;=50K" recordCount="47">
<SimplePredicate field="native-country" operator="equal" value="China" />
<ScoreDistribution value="&lt;=50K" recordCount ="1.008" />
<ScoreDistribution value="&gt;50K" recordCount ="0.005" />
</Node>
<Node score="&lt;=50K" recordCount="49">
<SimplePredicate field="native-country" operator="equal" value="Columbia" />
<ScoreDistribution value="&lt;=50K" recordCount ="3.023" />
<ScoreDistribution value="&gt;50K" recordCount ="0.016" />
</Node>
<Node score="&gt;50K" recordCount="53">
<SimplePredicate field="native-country" operator="equal" value="Cuba" />
<ScoreDistribution value="&lt;=50K" recordCount ="3.054" />
<ScoreDistribution value="&gt;50K" recordCount ="4.038" />
</Node>
<Node score="&lt;=50K" recordCount="52">
<SimplePredicate field="native-country" operator="equal" value="Dominican-Republic" />
<ScoreDistribution value="&lt;=50K" recordCount ="5.046" />
<ScoreDistribution value="&gt;50K" recordCount ="1.033" />
</Node>
<Node score="&gt;50K" recordCount="47">
<SimplePredicate field="native-country" operator="equal" value="Ecuador" />
<ScoreDistribution value="&lt;=50K" recordCount ="0.008" />
<ScoreDistribution value="&gt;50K" recordCount ="1.005" />
</Node>
<Node score="&lt;=50K" recordCount="49">
<SimplePredicate field="native-country" operator="equal" value="El-Salvador" />
<ScoreDistribution value="&lt;=50K" recordCount ="2.023" />
<ScoreDistribution value="&gt;50K" recordCount ="1.016" />
</Node>
<Node score="&lt;=50K" recordCount="49">
<SimplePredicate field="native-country" operator="equal" value="England" />
<ScoreDistribution value="&lt;=50K" recordCount ="2.023" />
<ScoreDistribution value="&gt;50K" recordCount ="1.016" />
</Node>
<Node score="&gt;50K" recordCount="47">
<SimplePredicate field="native-country" operator="equal" value="France" />
<ScoreDistribution value="&lt;=50K" recordCount ="0.008" />
<ScoreDistribution value="&gt;50K" recordCount ="1.005" />
</Node>
<Node score="&lt;=50K" recordCount="68">
<SimplePredicate field="native-country" operator="equal" value="Germany" />
<ScoreDistribution value="&lt;=50K" recordCount ="12.170" />
<ScoreDistribution value="&gt;50K" recordCount ="10.119" />
</Node>
<Node score="&lt;=50K" recordCount="52">
<SimplePredicate field="native-country" operator="equal" value="Greece" />
<ScoreDistribution value="&lt;=50K" recordCount ="5.046" />
<ScoreDistribution value="&gt;50K" recordCount ="1.033" />
</Node>
<Node score="&lt;=50K" recordCount="48">
<SimplePredicate field="native-country" operator="equal" value="Guatemala" />
<ScoreDistribution value="&lt;=50K" recordCount ="2.015" />
<ScoreDistribution value="&gt;50K" recordCount ="0.011" />
</Node>
<Node score="" recordCount="51">
<SimplePredicate field="native-country" operator="equal" value="Haiti" />
<ScoreDistribution value="&lt;=50K" recordCount ="2.039" />
<ScoreDistribution value="&gt;50K" recordCount ="3.027" />
<Node score="&lt;=50K" recordCount="11">
<SimplePredicate field="age" operator="lessOrEqual" value="35" />
<ScoreDistribution value="&lt;=50K" recordCount ="2.010" />
<ScoreDistribution value="&gt;50K" recordCount ="0.003" />
</Node>
<Node score="&gt;50K" recordCount="40">
<SimplePredicate field="age" operator="greatherThan" value="35" />
<ScoreDistribution value="&lt;=50K" recordCount ="0.029" />
<ScoreDistribution value="&gt;50K" recordCount ="3.024" />
</Node>
</Node>
<Node score="&lt;=50K" recordCount="46">
<SimplePredicate field="native-country" operator="equal" value="Holand-Netherlands" />
<ScoreDistribution value="&lt;=50K" recordCount ="0.000" />
<ScoreDistribution value="&gt;50K" recordCount ="0.000" />
</Node>
<Node score="&lt;=50K" recordCount="46">
<SimplePredicate field="native-country" operator="equal" value="Honduras" />
<ScoreDistribution value="&lt;=50K" recordCount ="0.000" />
<ScoreDistribution value="&gt;50K" recordCount ="0.000" />
</Node>
<Node score="&lt;=50K" recordCount="48">
<SimplePredicate field="native-country" operator="equal" value="Hong" />
<ScoreDistribution value="&lt;=50K" recordCount ="2.015" />
<ScoreDistribution value="&gt;50K" recordCount ="0.011" />
</Node>
<Node score="&gt;50K" recordCount="47">
<SimplePredicate field="native-country" operator="equal" value="Hungary" />
<ScoreDistribution value="&lt;=50K" recordCount ="0.008" />
<ScoreDistribution value="&gt;50K" recordCount ="1.005" />
</Node>
<Node score="&lt;=50K" recordCount="50">
<SimplePredicate field="native-country" operator="equal" value="India" />
<ScoreDistribution value="&lt;=50K" recordCount ="2.031" />
<ScoreDistribution value="&gt;50K" recordCount ="2.022" />
</Node>
<Node score="&lt;=50K" recordCount="49">
<SimplePredicate field="native-country" operator="equal" value="Iran" />
<ScoreDistribution value="&lt;=50K" recordCount ="2.023" />
<ScoreDistribution value="&gt;50K" recordCount ="1.016" />
</Node>
<Node score="&gt;50K" recordCount="47">
<SimplePredicate field="native-country" operator="equal" value="Ireland" />
<ScoreDistribution value="&lt;=50K" recordCount ="0.008" />
<ScoreDistribution value="&gt;50K" recordCount ="1.005" />
</Node>
<Node score="&lt;=50K" recordCount="49">
<SimplePredicate field="native-country" operator="equal" value="Italy" />
<ScoreDistribution value="&lt;=50K" recordCount ="3.023" />
<ScoreDistribution value="&gt;50K" recordCount ="0.016" />
</Node>
<Node score="" recordCount="54">
<SimplePredicate field="native-country" operator="equal" value="Jamaica" />
<ScoreDistribution value="&lt;=50K" recordCount ="3.062" />
<ScoreDistribution value="&gt;50K" recordCount ="5.043" />
<Node score="&lt;=50K" recordCount="4">
<SimplePredicate field="hours-per-week" operator="lessOrEqual" value="39" />
<ScoreDistribution value="&lt;=50K" recordCount ="2.002" />
<ScoreDistribution value="&gt;50K" recordCount ="0.002" />
</Node>
<Node score="&gt;50K" recordCount="50">
<SimplePredicate field="hours-per-week" operator="greatherThan" value="39" />
<ScoreDistribution value="&lt;=50K" recordCount ="1.059" />
<ScoreDistribution value="&gt;50K" recordCount ="5.041" />
</Node>
</Node>
<Node score="&lt;=50K" recordCount="50">
<SimplePredicate field="native-country" operator="equal" value="Japan" />
<ScoreDistribution value="&lt;=50K" recordCount ="4.031" />
<ScoreDistribution value="&gt;50K" recordCount ="0.022" />
</Node>
<Node score="&lt;=50K" recordCount="48">
<SimplePredicate field="native-country" operator="equal" value="Laos" />
<ScoreDistribution value="&lt;=50K" recordCount ="2.015" />
<ScoreDistribution value="&gt;50K" recordCount ="0.011" />
</Node>
<Node score="&lt;=50K" recordCount="69">
<SimplePredicate field="native-country" operator="equal" value="Mexico" />
<ScoreDistribution value="&lt;=50K" recordCount ="19.178" />
<ScoreDistribution value="&gt;50K" recordCount ="4.125" />
</Node>
<Node score="&lt;=50K" recordCount="48">
<SimplePredicate field="native-country" operator="equal" value="Nicaragua" />
<ScoreDistribution value="&lt;=50K" recordCount ="2.015" />
<ScoreDistribution value="&gt;50K" recordCount ="0.011" />
</Node>
<Node score="&gt;50K" recordCount="47">
<SimplePredicate field="native-country" operator="equal" value="Outlying-US(Guam-USVI-etc)" />
<ScoreDistribution value="&lt;=50K" recordCount ="0.008" />
<ScoreDistribution value="&gt;50K" recordCount ="1.005" />
</Node>
<Node score="&lt;=50K" recordCount="50">
<SimplePredicate field="native-country" operator="equal" value="Peru" />
<ScoreDistribution value="&lt;=50K" recordCount ="3.031" />
<ScoreDistribution value="&gt;50K" recordCount ="1.022" />
</Node>
<Node score="" recordCount="71">
<SimplePredicate field="native-country" operator="equal" value="Philippines" />
<ScoreDistribution value="&lt;=50K" recordCount ="12.193" />
<ScoreDistribution value="&gt;50K" recordCount ="13.136" />
<Node score="&gt;50K" recordCount="8">
<SimplePredicate field="workclass" operator="equal" value="Federal-gov" />
<ScoreDistribution value="&lt;=50K" recordCount ="0.022" />
<ScoreDistribution value="&gt;50K" recordCount ="2.084" />
</Node>
<Node score="&lt;=50K" recordCount="5">
<SimplePredicate field="workclass" operator="equal" value="Local-gov" />
<ScoreDistribution value="&lt;=50K" recordCount ="1.007" />
<ScoreDistribution value="&gt;50K" recordCount ="0.042" />
</Node>
<Node score="&gt;50K" recordCount="3">
<SimplePredicate field="workclass" operator="equal" value="Never-worked" />
<ScoreDistribution value="&lt;=50K" recordCount ="0.000" />
<ScoreDistribution value="&gt;50K" recordCount ="0.000" />
</Node>
<Node score="" recordCount="52">
<SimplePredicate field="workclass" operator="equal" value="Private" />
<ScoreDistribution value="&lt;=50K" recordCount ="11.127" />
<ScoreDistribution value="&gt;50K" recordCount ="8.889" />
<Node score="&lt;=50K" recordCount="0">
<SimplePredicate field="race" operator="equal" value="Amer-Indian-Eskimo" />
<ScoreDistribution value="&lt;=50K" recordCount ="0.000" />
<ScoreDistribution value="&gt;50K" recordCount ="0.000" />
</Node>
<Node score="&lt;=50K" recordCount="25">
<SimplePredicate field="race" operator="equal" value="Asian-Pac-Islander" />
<ScoreDistribution value="&lt;=50K" recordCount ="11.027" />
<ScoreDistribution value="&gt;50K" recordCount ="6.812" />
</Node>
<Node score="&lt;=50K" recordCount="4">
<SimplePredicate field="race" operator="equal" value="Black" />
<ScoreDistribution value="&lt;=50K" recordCount ="0.021" />
<ScoreDistribution value="&gt;50K" recordCount ="0.007" />
</Node>
<Node score="&lt;=50K" recordCount="0">
<SimplePredicate field="race" operator="equal" value="Other" />
<ScoreDistribution value="&lt;=50K" recordCount ="0.000" />
<ScoreDistribution value="&gt;50K" recordCount ="0.000" />
</Node>
<Node score="&gt;50K" recordCount="23">
<SimplePredicate field="race" operator="equal" value="White" />
<ScoreDistribution value="&lt;=50K" recordCount ="0.079" />
<ScoreDistribution value="&gt;50K" recordCount ="2.070" />
</Node>
</Node>
<Node score="&gt;50K" recordCount="7">
<SimplePredicate field="workclass" operator="equal" value="Self-emp-inc" />
<ScoreDistribution value="&lt;=50K" recordCount ="0.007" />
<ScoreDistribution value="&gt;50K" recordCount ="0.023" />
</Node>
<Node score="&gt;50K" recordCount="8">
<SimplePredicate field="workclass" operator="equal" value="Self-emp-not-inc" />
<ScoreDistribution value="&lt;=50K" recordCount ="0.015" />
<ScoreDistribution value="&gt;50K" recordCount ="1.057" />
</Node>
<Node score="&gt;50K" recordCount="6">
<SimplePredicate field="workclass" operator="equal" value="State-gov" />
<ScoreDistribution value="&lt;=50K" recordCount ="0.015" />
<ScoreDistribution value="&gt;50K" recordCount ="1.042" />
</Node>
<Node score="&gt;50K" recordCount="3">
<SimplePredicate field="workclass" operator="equal" value="Without-pay" />
<ScoreDistribution value="&lt;=50K" recordCount ="0.000" />
<ScoreDistribution value="&gt;50K" recordCount ="0.000" />
</Node>
</Node>
<Node score="" recordCount="55">
<SimplePredicate field="native-country" operator="equal" value="Poland" />
<ScoreDistribution value="&lt;=50K" recordCount ="5.069" />
<ScoreDistribution value="&gt;50K" recordCount ="4.049" />
<Node score="&gt;50K" recordCount="37">
<SimplePredicate field="hours-per-week" operator="lessOrEqual" value="49" />
<ScoreDistribution value="&lt;=50K" recordCount ="2.046" />
<ScoreDistribution value="&gt;50K" recordCount ="4.033" />
</Node>
<Node score="&lt;=50K" recordCount="18">
<SimplePredicate field="hours-per-week" operator="greatherThan" value="49" />
<ScoreDistribution value="&lt;=50K" recordCount ="3.023" />
<ScoreDistribution value="&gt;50K" recordCount ="0.015" />
</Node>
</Node>
<Node score="&gt;50K" recordCount="47">
<SimplePredicate field="native-country" operator="equal" value="Portugal" />
<ScoreDistribution value="&lt;=50K" recordCount ="0.008" />
<ScoreDistribution value="&gt;50K" recordCount ="1.005" />
</Node>
<Node score="&lt;=50K" recordCount="57">
<SimplePredicate field="native-country" operator="equal" value="Puerto-Rico" />
<ScoreDistribution value="&lt;=50K" recordCount ="7.085" />
<ScoreDistribution value="&gt;50K" recordCount ="4.060" />
</Node>
<Node score="&lt;=50K" recordCount="48">
<SimplePredicate field="native-country" operator="equal" value="Scotland" />
<ScoreDistribution value="&lt;=50K" recordCount ="1.015" />
<ScoreDistribution value="&gt;50K" recordCount ="1.011" />
</Node>
<Node score="&lt;=50K" recordCount="50">
<SimplePredicate field="native-country" operator="equal" value="South" />
<ScoreDistribution value="&lt;=50K" recordCount ="3.031" />
<ScoreDistribution value="&gt;50K" recordCount ="1.022" />
</Node>
<Node score="&lt;=50K" recordCount="48">
<SimplePredicate field="native-country" operator="equal" value="Taiwan" />
<ScoreDistribution value="&lt;=50K" recordCount ="2.015" />
<ScoreDistribution value="&gt;50K" recordCount ="0.011" />
</Node>
<Node score="&gt;50K" recordCount="47">
<SimplePredicate field="native-country" operator="equal" value="Thailand" />
<ScoreDistribution value="&lt;=50K" recordCount ="0.008" />
<ScoreDistribution value="&gt;50K" recordCount ="1.005" />
</Node>
<Node score="&lt;=50K" recordCount="49">
<SimplePredicate field="native-country" operator="equal" value="Trinadad&amp;Tobago" />
<ScoreDistribution value="&lt;=50K" recordCount ="3.023" />
<ScoreDistribution value="&gt;50K" recordCount ="0.016" />
</Node>
<Node score="" recordCount="3343">
<SimplePredicate field="native-country" operator="equal" value="United-States" />
<ScoreDistribution value="&lt;=50K" recordCount ="1853.448" />
<ScoreDistribution value="&gt;50K" recordCount ="1486.908" />
<Node score="" recordCount="342">
<SimplePredicate field="occupation" operator="equal" value="Adm-clerical" />
<ScoreDistribution value="&lt;=50K" recordCount ="152.491" />
<ScoreDistribution value="&gt;50K" recordCount ="128.011" />
<Node score="&lt;=50K" recordCount="5">
<SimplePredicate field="race" operator="equal" value="Amer-Indian-Eskimo" />
<ScoreDistribution value="&lt;=50K" recordCount ="2.084" />
<ScoreDistribution value="&gt;50K" recordCount ="2.000" />
</Node>
<Node score="&gt;50K" recordCount="5">
<SimplePredicate field="race" operator="equal" value="Asian-Pac-Islander" />
<ScoreDistribution value="&lt;=50K" recordCount ="0.079" />
<ScoreDistribution value="&gt;50K" recordCount ="3.084" />
</Node>
<Node score="" recordCount="36">
<SimplePredicate field="race" operator="equal" value="Black" />
<ScoreDistribution value="&lt;=50K" recordCount ="14.168" />
<ScoreDistribution value="&gt;50K" recordCount ="18.168" />
<Node score="&gt;50K" recordCount="9">
<SimplePredicate field="workclass" operator="equal" value="Federal-gov" />
<ScoreDistribution value="&lt;=50K" recordCount ="1.026" />
<ScoreDistribution value="&gt;50K" recordCount ="4.026" />
</Node>
<Node score="&lt;=50K" recordCount="7">
<SimplePredicate field="workclass" operator="equal" value="Local-gov" />
<ScoreDistribution value="&lt;=50K" recordCount ="2.016" />
<ScoreDistribution value="&gt;50K" recordCount ="1.016" />
</Node>
<Node score="&gt;50K" recordCount="4">
<SimplePredicate field="workclass" operator="equal" value="Never-worked" />
<ScoreDistribution value="&lt;=50K" recordCount ="0.000" />
<ScoreDistribution value="&gt;50K" recordCount ="0.000" />
</Node>
<Node score="" recordCount="26">
<SimplePredicate field="workclass" operator="equal" value="Private" />
<ScoreDistribution value="&lt;=50K" recordCount ="9.115" />
<ScoreDistribution value="&gt;50K" recordCount ="13.115" />
<Node score="" recordCount="20">
<SimplePredicate field="hours-per-week" operator="lessOrEqual" value="42" />
<ScoreDistribution value="&lt;=50K" recordCount ="9.115" />
<ScoreDistribution value="&gt;50K" recordCount ="7.115" />
<Node score="&lt;=50K" recordCount="0">
<SimplePredicate field="education" operator="equal" value="10th" />
<ScoreDistribution value="&lt;=50K" recordCount ="0.000" />
<ScoreDistribution value="&gt;50K" recordCount ="0.000" />
</Node>
<Node score="&lt;=50K" recordCount="0">
<SimplePredicate field="education" operator="equal" value="11th" />
<ScoreDistribution value="&lt;=50K" recordCount ="0.000" />
<ScoreDistribution value="&gt;50K" recordCount ="0.000" />
</Node>
<Node score="&lt;=50K" recordCount="0">
<SimplePredicate field="education" operator="equal" value="12th" />
<ScoreDistribution value="&lt;=50K" recordCount ="0.000" />
<ScoreDistribution value="&gt;50K" recordCount ="0.000" />
</Node>
<Node score="&lt;=50K" recordCount="0">
<SimplePredicate field="education" operator="equal" value="1st-4th" />
<ScoreDistribution value="&lt;=50K" recordCount ="0.000" />
<ScoreDistribution value="&gt;50K" recordCount ="0.000" />
</Node>
<Node score="&lt;=50K" recordCount="0">
<SimplePredicate field="education" operator="equal" value="5th-6th" />
<ScoreDistribution value="&lt;=50K" recordCount ="0.000" />
<ScoreDistribution value="&gt;50K" recordCount ="0.000" />
</Node>
<Node score="&lt;=50K" recordCount="0">
<SimplePredicate field="education" operator="equal" value="7th-8th" />
<ScoreDistribution value="&lt;=50K" recordCount ="0.000" />
<ScoreDistribution value="&gt;50K" recordCount ="0.000" />
</Node>
<Node score="&lt;=50K" recordCount="0">
<SimplePredicate field="education" operator="equal" value="9th" />
<ScoreDistribution value="&lt;=50K" recordCount ="0.000" />
<ScoreDistribution value="&gt;50K" recordCount ="0.000" />
</Node>
<Node score="&lt;=50K" recordCount="0">
<SimplePredicate field="education" operator="equal" value="Assoc-acdm" />
<ScoreDistribution value="&lt;=50K" recordCount ="0.000" />
<ScoreDistribution value="&gt;50K" recordCount ="0.000" />
</Node>
<Node score="&lt;=50K" recordCount="5">
<SimplePredicate field="education" operator="equal" value="Assoc-voc" />
<ScoreDistribution value="&lt;=50K" recordCount ="4.000" />
<ScoreDistribution value="&gt;50K" recordCount ="0.058" />
</Node>
<Node score="&lt;=50K" recordCount="0">
<SimplePredicate field="education" operator="equal" value="Bachelors" />
<ScoreDistribution value="&lt;=50K" recordCount ="0.000" />
<ScoreDistribution value="&gt;50K" recordCount ="0.000" />
</Node>
<Node score="&lt;=50K" recordCount="0">
<SimplePredicate field="education" operator="equal" value="Doctorate" />
<ScoreDistribution value="&lt;=50K" recordCount ="0.000" />
<ScoreDistribution value="&gt;50K" recordCount ="0.000" />
</Node>
<Node score="&lt;=50K" recordCount="0">
<SimplePredicate field="education" operator="equal" value="HS-grad" />
<ScoreDistribution value="&lt;=50K" recordCount ="0.000" />
<ScoreDistribution value="&gt;50K" recordCount ="0.000" />
</Node>
<Node score="&lt;=50K" recordCount="0">
<SimplePredicate field="education" operator="equal" value="Masters" />
<ScoreDistribution value="&lt;=50K" recordCount ="0.000" />
<ScoreDistribution value="&gt;50K" recordCount ="0.000" />
</Node>
<Node score="&lt;=50K" recordCount="0">
<SimplePredicate field="education" operator="equal" value="Preschool" />
<ScoreDistribution value="&lt;=50K" recordCount ="0.000" />
<ScoreDistribution value="&gt;50K" recordCount ="0.000" />
</Node>
<Node score="&lt;=50K" recordCount="0">
<SimplePredicate field="education" operator="equal" value="Prof-school" />
<ScoreDistribution value="&lt;=50K" recordCount ="0.000" />
<ScoreDistribution value="&gt;50K" recordCount ="0.000" />
</Node>
<Node score="" recordCount="15">
<SimplePredicate field="education" operator="equal" value="Some-college" />
<ScoreDistribution value="&lt;=50K" recordCount ="5.115" />
<ScoreDistribution value="&gt;50K" recordCount ="7.058" />
<Node score="&lt;=50K" recordCount="11">
<SimplePredicate field="fnlwgt" operator="lessOrEqual" value="285200" />
<ScoreDistribution value="&lt;=50K" recordCount ="5.115" />
<ScoreDistribution value="&gt;50K" recordCount ="3.058" />
</Node>
<Node score="&gt;50K" recordCount="4">
<SimplePredicate field="fnlwgt" operator="greatherThan" value="285200" />
<ScoreDistribution value="&lt;=50K" recordCount ="0.000" />
<ScoreDistribution value="&gt;50K" recordCount ="4.000" />
</Node>
</Node>
</Node>
<Node score="&gt;50K" recordCount="6">
<SimplePredicate field="hours-per-week" operator="greatherThan" value="42" />
<ScoreDistribution value="&lt;=50K" recordCount ="0.000" />
<ScoreDistribution value="&gt;50K" recordCount ="6.000" />
</Node>
</Node>
<Node score="&gt;50K" recordCount="4">
<SimplePredicate field="workclass" operator="equal" value="Self-emp-inc" />
<ScoreDistribution value="&lt;=50K" recordCount ="0.000" />
<ScoreDistribution value="&gt;50K" recordCount ="0.000" />
</Node>
<Node score="&gt;50K" recordCount="4">
<SimplePredicate field="workclass" operator="equal" value="Self-emp-not-inc" />
<ScoreDistribution value="&lt;=50K" recordCount ="0.000" />
<ScoreDistribution value="&gt;50K" recordCount ="0.000" />
</Node>
<Node score="&lt;=50K" recordCount="6">
<SimplePredicate field="workclass" operator="equal" value="State-gov" />
<ScoreDistribution value="&lt;=50K" recordCount ="2.010" />
<ScoreDistribution value="&gt;50K" recordCount ="0.010" />
</Node>
<Node score="&gt;50K" recordCount="4">
<SimplePredicate field="workclass" operator="equal" value="Without-pay" />
<ScoreDistribution value="&lt;=50K" recordCount ="0.000" />
<ScoreDistribution value="&gt;50K" recordCount ="0.000" />
</Node>
</Node>
<Node score="&lt;=50K" recordCount="0">
<SimplePredicate field="race" operator="equal" value="Other" />
<ScoreDistribution value="&lt;=50K" recordCount ="0.000" />
<ScoreDistribution value="&gt;50K" recordCount ="0.000" />
</Node>
<Node score="" recordCount="296">
<SimplePredicate field="race" operator="equal" value="White" />
<ScoreDistribution value="&lt;=50K" recordCount ="136.160" />
<ScoreDistribution value="&gt;50K" recordCount ="104.759" />
<Node score="&gt;50K" recordCount="102">
<SimplePredicate field="workclass" operator="equal" value="Federal-gov" />
<ScoreDistribution value="&lt;=50K" recordCount ="16.583" />
<ScoreDistribution value="&gt;50K" recordCount ="26.313" />
</Node>
<Node score="" recordCount="77">
<SimplePredicate field="workclass" operator="equal" value="Local-gov" />
<ScoreDistribution value="&lt;=50K" recordCount ="9.236" />
<ScoreDistribution value="&gt;50K" recordCount ="8.127" />
<Node score="&lt;=50K" recordCount="22">
<SimplePredicate field="sex" operator="equal" value="Female" />
<ScoreDistribution value="&lt;=50K" recordCount ="7.042" />
<ScoreDistribution value="&gt;50K" recordCount ="3.030" />
</Node>
<Node score="&gt;50K" recordCount="55">
<SimplePredicate field="sex" operator="equal" value="Male" />
<ScoreDistribution value="&lt;=50K" recordCount ="2.194" />
<ScoreDistribution value="&gt;50K" recordCount ="5.096" />
</Node>
</Node>
<Node score="&lt;=50K" recordCount="60">
<SimplePredicate field="workclass" operator="equal" value="Never-worked" />
<ScoreDistribution value="&lt;=50K" recordCount ="0.000" />
<ScoreDistribution value="&gt;50K" recordCount ="0.000" />
</Node>
<Node score="&lt;=50K" recordCount="221">
<SimplePredicate field="workclass" operator="equal" value="Private" />
<ScoreDistribution value="&lt;=50K" recordCount ="102.177" />
<ScoreDistribution value="&gt;50K" recordCount ="62.200" />
</Node>
<Node score="&gt;50K" recordCount="61">
<SimplePredicate field="workclass" operator="equal" value="Self-emp-inc" />
<ScoreDistribution value="&lt;=50K" recordCount ="0.014" />
<ScoreDistribution value="&gt;50K" recordCount ="1.007" />
</Node>
<Node score="&gt;50K" recordCount="64">
<SimplePredicate field="workclass" operator="equal" value="Self-emp-not-inc" />
<ScoreDistribution value="&lt;=50K" recordCount ="1.056" />
<ScoreDistribution value="&gt;50K" recordCount ="3.030" />
</Node>
<Node score="&lt;=50K" recordCount="71">
<SimplePredicate field="workclass" operator="equal" value="State-gov" />
<ScoreDistribution value="&lt;=50K" recordCount ="7.094" />
<ScoreDistribution value="&gt;50K" recordCount ="4.082" />
</Node>
<Node score="&lt;=50K" recordCount="60">
<SimplePredicate field="workclass" operator="equal" value="Without-pay" />
<ScoreDistribution value="&lt;=50K" recordCount ="0.000" />
<ScoreDistribution value="&gt;50K" recordCount ="0.000" />
</Node>
</Node>
</Node>
<Node score="&gt;50K" recordCount="68">
<SimplePredicate field="occupation" operator="equal" value="Armed-Forces" />
<ScoreDistribution value="&lt;=50K" recordCount ="0.013" />
<ScoreDistribution value="&gt;50K" recordCount ="1.007" />
</Node>
<Node score="" recordCount="800">
<SimplePredicate field="occupation" operator="equal" value="Craft-repair" />
<ScoreDistribution value="&lt;=50K" recordCount ="445.202" />
<ScoreDistribution value="&gt;50K" recordCount ="301.895" />
<Node score="" recordCount="8">
<SimplePredicate field="race" operator="equal" value="Amer-Indian-Eskimo" />
<ScoreDistribution value="&lt;=50K" recordCount ="4.224" />
<ScoreDistribution value="&gt;50K" recordCount ="3.000" />
<Node score="&lt;=50K" recordCount="3">
<SimplePredicate field="age" operator="lessOrEqual" value="38" />
<ScoreDistribution value="&lt;=50K" recordCount ="2.224" />
<ScoreDistribution value="&gt;50K" recordCount ="0.000" />
</Node>
<Node score="" recordCount="5">
<SimplePredicate field="age" operator="greatherThan" value="38" />
<ScoreDistribution value="&lt;=50K" recordCount ="2.000" />
<ScoreDistribution value="&gt;50K" recordCount ="3.000" />
<Node score="&gt;50K" recordCount="2">
<SimplePredicate field="age" operator="lessOrEqual" value="44" />
<ScoreDistribution value="&lt;=50K" recordCount ="0.000" />
<ScoreDistribution value="&gt;50K" recordCount ="2.000" />
</Node>
<Node score="&lt;=50K" recordCount="3">
<SimplePredicate field="age" operator="greatherThan" value="44" />
<ScoreDistribution value="&lt;=50K" recordCount ="2.000" />
<ScoreDistribution value="&gt;50K" recordCount ="1.000" />
</Node>
</Node>
</Node>
<Node score="" recordCount="14">
<SimplePredicate field="race" operator="equal" value="Asian-Pac-Islander" />
<ScoreDistribution value="&lt;=50K" recordCount ="5.153" />
<ScoreDistribution value="&gt;50K" recordCount ="7.109" />
<Node score="&lt;=50K" recordCount="7">
<SimplePredicate field="age" operator="lessOrEqual" value="47" />
<ScoreDistribution value="&lt;=50K" recordCount ="4.943" />
<ScoreDistribution value="&gt;50K" recordCount ="1.943" />
</Node>
<Node score="&gt;50K" recordCount="7">
<SimplePredicate field="age" operator="greatherThan" value="47" />
<ScoreDistribution value="&lt;=50K" recordCount ="0.211" />
<ScoreDistribution value="&gt;50K" recordCount ="5.166" />
</Node>
</Node>
<Node score="" recordCount="35">
<SimplePredicate field="race" operator="equal" value="Black" />
<ScoreDistribution value="&lt;=50K" recordCount ="13.447" />
<ScoreDistribution value="&gt;50K" recordCount ="18.447" />
<Node score="&lt;=50K" recordCount="6">
<SimplePredicate field="age" operator="lessOrEqual" value="38" />
<ScoreDistribution value="&lt;=50K" recordCount ="5.224" />
<ScoreDistribution value="&gt;50K" recordCount ="0.000" />
</Node>
<Node score="&gt;50K" recordCount="29">
<SimplePredicate field="age" operator="greatherThan" value="38" />
<ScoreDistribution value="&lt;=50K" recordCount ="8.224" />
<ScoreDistribution value="&gt;50K" recordCount ="18.447" />
</Node>
</Node>
<Node score="&gt;50K" recordCount="1">
<SimplePredicate field="race" operator="equal" value="Other" />
<ScoreDistribution value="&lt;=50K" recordCount ="0.000" />
<ScoreDistribution value="&gt;50K" recordCount ="1.000" />
</Node>
<Node score="" recordCount="742">
<SimplePredicate field="race" operator="equal" value="White" />
<ScoreDistribution value="&lt;=50K" recordCount ="422.378" />
<ScoreDistribution value="&gt;50K" recordCount ="272.339" />
<Node score="&lt;=50K" recordCount="79">
<SimplePredicate field="workclass" operator="equal" value="Federal-gov" />
<ScoreDistribution value="&lt;=50K" recordCount ="13.185" />
<ScoreDistribution value="&gt;50K" recordCount ="6.130" />
</Node>
<Node score="" recordCount="84">
<SimplePredicate field="workclass" operator="equal" value="Local-gov" />
<ScoreDistribution value="&lt;=50K" recordCount ="16.307" />
<ScoreDistribution value="&gt;50K" recordCount ="8.165" />
<Node score="&lt;=50K" recordCount="45">
<SimplePredicate field="fnlwgt" operator="lessOrEqual" value="188709" />
<ScoreDistribution value="&lt;=50K" recordCount ="10.189" />
<ScoreDistribution value="&gt;50K" recordCount ="0.087" />
</Node>
<Node score="" recordCount="39">
<SimplePredicate field="fnlwgt" operator="greatherThan" value="188709" />
<ScoreDistribution value="&lt;=50K" recordCount ="6.118" />
<ScoreDistribution value="&gt;50K" recordCount ="8.078" />
<Node score="&gt;50K" recordCount="0">
<SimplePredicate field="education" operator="equal" value="10th" />
<ScoreDistribution value="&lt;=50K" recordCount ="0.000" />
<ScoreDistribution value="&gt;50K" recordCount ="0.000" />
</Node>
<Node score="&gt;50K" recordCount="0">
<SimplePredicate field="education" operator="equal" value="11th" />
<ScoreDistribution value="&lt;=50K" recordCount ="0.000" />
<ScoreDistribution value="&gt;50K" recordCount ="0.000" />
</Node>
<Node score="&gt;50K" recordCount="0">
<SimplePredicate field="education" operator="equal" value="12th" />
<ScoreDistribution value="&lt;=50K" recordCount ="0.000" />
<ScoreDistribution value="&gt;50K" recordCount ="0.000" />
</Node>
<Node score="&gt;50K" recordCount="0">
<SimplePredicate field="education" operator="equal" value="1st-4th" />
<ScoreDistribution value="&lt;=50K" recordCount ="0.000" />
<ScoreDistribution value="&gt;50K" recordCount ="0.000" />
</Node>
<Node score="&gt;50K" recordCount="0">
<SimplePredicate field="education" operator="equal" value="5th-6th" />
<ScoreDistribution value="&lt;=50K" recordCount ="0.000" />
<ScoreDistribution value="&gt;50K" recordCount ="0.000" />
</Node>
<Node score="&gt;50K" recordCount="0">
<SimplePredicate field="education" operator="equal" value="7th-8th" />
<ScoreDistribution value="&lt;=50K" recordCount ="0.000" />
<ScoreDistribution value="&gt;50K" recordCount ="0.000" />
</Node>
<Node score="&gt;50K" recordCount="0">
<SimplePredicate field="education" operator="equal" value="9th" />
<ScoreDistribution value="&lt;=50K" recordCount ="0.000" />
<ScoreDistribution value="&gt;50K" recordCount ="0.000" />
</Node>
<Node score="&gt;50K" recordCount="0">
<SimplePredicate field="education" operator="equal" value="Assoc-acdm" />
<ScoreDistribution value="&lt;=50K" recordCount ="0.000" />
<ScoreDistribution value="&gt;50K" recordCount ="0.000" />
</Node>
<Node score="&gt;50K" recordCount="6">
<SimplePredicate field="education" operator="equal" value="Assoc-voc" />
<ScoreDistribution value="&lt;=50K" recordCount ="1.000" />
<ScoreDistribution value="&gt;50K" recordCount ="2.024" />
</Node>
<Node score="&gt;50K" recordCount="0">
<SimplePredicate field="education" operator="equal" value="Bachelors" />
<ScoreDistribution value="&lt;=50K" recordCount ="0.000" />
<ScoreDistribution value="&gt;50K" recordCount ="0.000" />
</Node>
<Node score="&gt;50K" recordCount="0">
<SimplePredicate field="education" operator="equal" value="Doctorate" />
<ScoreDistribution value="&lt;=50K" recordCount ="0.000" />
<ScoreDistribution value="&gt;50K" recordCount ="0.000" />
</Node>
<Node score="&gt;50K" recordCount="0">
<SimplePredicate field="education" operator="equal" value="HS-grad" />
<ScoreDistribution value="&lt;=50K" recordCount ="0.000" />
<ScoreDistribution value="&gt;50K" recordCount ="0.000" />
</Node>
<Node score="&gt;50K" recordCount="0">
<SimplePredicate field="education" operator="equal" value="Masters" />
<ScoreDistribution value="&lt;=50K" recordCount ="0.000" />
<ScoreDistribution value="&gt;50K" recordCount ="0.000" />
</Node>
<Node score="&gt;50K" recordCount="0">
<SimplePredicate field="education" operator="equal" value="Preschool" />
<ScoreDistribution value="&lt;=50K" recordCount ="0.000" />
<ScoreDistribution value="&gt;50K" recordCount ="0.000" />
</Node>
<Node score="&gt;50K" recordCount="0">
<SimplePredicate field="education" operator="equal" value="Prof-school" />
<ScoreDistribution value="&lt;=50K" recordCount ="0.000" />
<ScoreDistribution value="&gt;50K" recordCount ="0.000" />
</Node>
<Node score="" recordCount="33">
<SimplePredicate field="education" operator="equal" value="Some-college" />
<ScoreDistribution value="&lt;=50K" recordCount ="5.118" />
<ScoreDistribution value="&gt;50K" recordCount ="6.055" />
<Node score="&lt;=50K" recordCount="23">
<SimplePredicate field="hours-per-week" operator="lessOrEqual" value="40" />
<ScoreDistribution value="&lt;=50K" recordCount ="5.087" />
<ScoreDistribution value="&gt;50K" recordCount ="3.031" />
</Node>
<Node score="&gt;50K" recordCount="10">
<SimplePredicate field="hours-per-week" operator="greatherThan" value="40" />
<ScoreDistribution value="&lt;=50K" recordCount ="0.032" />
<ScoreDistribution value="&gt;50K" recordCount ="3.024" />
</Node>
</Node>
</Node>
</Node>
<Node score="&lt;=50K" recordCount="60">
<SimplePredicate field="workclass" operator="equal" value="Never-worked" />
<ScoreDistribution value="&lt;=50K" recordCount ="0.000" />
<ScoreDistribution value="&gt;50K" recordCount ="0.000" />
</Node>
<Node score="" recordCount="573">
<SimplePredicate field="workclass" operator="equal" value="Private" />
<ScoreDistribution value="&lt;=50K" recordCount ="297.448" />
<ScoreDistribution value="&gt;50K" recordCount ="225.237" />
<Node score="" recordCount="556">
<SimplePredicate field="relationship" operator="equal" value="Husband" />
<ScoreDistribution value="&lt;=50K" recordCount ="292.270" />
<ScoreDistribution value="&gt;50K" recordCount ="223.395" />
<Node score="" recordCount="229">
<SimplePredicate field="fnlwgt" operator="lessOrEqual" value="152968" />
<ScoreDistribution value="&lt;=50K" recordCount ="138.971" />
<ScoreDistribution value="&gt;50K" recordCount ="70.784" />
<Node score="" recordCount="163">
<SimplePredicate field="age" operator="lessOrEqual" value="49" />
<ScoreDistribution value="&lt;=50K" recordCount ="111.120" />
<ScoreDistribution value="&gt;50K" recordCount ="44.337" />
<Node score="&lt;=50K" recordCount="153">
<SimplePredicate field="capital-gain" operator="lessOrEqual" value="1506" />
<ScoreDistribution value="&lt;=50K" recordCount ="106.120" />
<ScoreDistribution value="&gt;50K" recordCount ="39.337" />
</Node>
<Node score="" recordCount="10">
<SimplePredicate field="capital-gain" operator="greatherThan" value="1506" />
<ScoreDistribution value="&lt;=50K" recordCount ="5.000" />
<ScoreDistribution value="&gt;50K" recordCount ="5.000" />
<Node score="&gt;50K" recordCount="4">
<SimplePredicate field="capital-gain" operator="lessOrEqual" value="3273" />
<ScoreDistribution value="&lt;=50K" recordCount ="0.000" />
<ScoreDistribution value="&gt;50K" recordCount ="4.000" />
</Node>
<Node score="&lt;=50K" recordCount="6">
<SimplePredicate field="capital-gain" operator="greatherThan" value="3273" />
<ScoreDistribution value="&lt;=50K" recordCount ="5.000" />
<ScoreDistribution value="&gt;50K" recordCount ="1.000" />
</Node>
</Node>
</Node>
<Node score="" recordCount="66">
<SimplePredicate field="age" operator="greatherThan" value="49" />
<ScoreDistribution value="&lt;=50K" recordCount ="27.851" />
<ScoreDistribution value="&gt;50K" recordCount ="26.447" />
<Node score="" recordCount="60">
<SimplePredicate field="hours-per-week" operator="lessOrEqual" value="51" />
<ScoreDistribution value="&lt;=50K" recordCount ="21.851" />
<ScoreDistribution value="&gt;50K" recordCount ="26.447" />
<Node score="&gt;50K" recordCount="44">
<SimplePredicate field="age" operator="lessOrEqual" value="59" />
<ScoreDistribution value="&lt;=50K" recordCount ="13.010" />
<ScoreDistribution value="&gt;50K" recordCount ="25.111" />
</Node>
<Node score="&lt;=50K" recordCount="16">
<SimplePredicate field="age" operator="greatherThan" value="59" />
<ScoreDistribution value="&lt;=50K" recordCount ="8.841" />
<ScoreDistribution value="&gt;50K" recordCount ="1.337" />
</Node>
</Node>
<Node score="&lt;=50K" recordCount="6">
<SimplePredicate field="hours-per-week" operator="greatherThan" value="51" />
<ScoreDistribution value="&lt;=50K" recordCount ="6.000" />
<ScoreDistribution value="&gt;50K" recordCount ="0.000" />
</Node>
</Node>
</Node>
<Node score="" recordCount="327">
<SimplePredicate field="fnlwgt" operator="greatherThan" value="152968" />
<ScoreDistribution value="&lt;=50K" recordCount ="153.298" />
<ScoreDistribution value="&gt;50K" recordCount ="152.611" />
<Node score="" recordCount="241">
<SimplePredicate field="hours-per-week" operator="lessOrEqual" value="47" />
<ScoreDistribution value="&lt;=50K" recordCount ="123.625" />
<ScoreDistribution value="&gt;50K" recordCount ="104.717" />
<Node score="&lt;=50K" recordCount="185">
<SimplePredicate field="education-num" operator="lessOrEqual" value="10" />
<ScoreDistribution value="&lt;=50K" recordCount ="95.625" />
<ScoreDistribution value="&gt;50K" recordCount ="76.774" />
</Node>
<Node score="" recordCount="56">
<SimplePredicate field="education-num" operator="greatherThan" value="10" />
<ScoreDistribution value="&lt;=50K" recordCount ="28.000" />
<ScoreDistribution value="&gt;50K" recordCount ="27.943" />
<Node score="&lt;=50K" recordCount="20">
<SimplePredicate field="fnlwgt" operator="lessOrEqual" value="192344" />
<ScoreDistribution value="&lt;=50K" recordCount ="15.000" />
<ScoreDistribution value="&gt;50K" recordCount ="5.000" />
</Node>
<Node score="&gt;50K" recordCount="36">
<SimplePredicate field="fnlwgt" operator="greatherThan" value="192344" />
<ScoreDistribution value="&lt;=50K" recordCount ="13.000" />
<ScoreDistribution value="&gt;50K" recordCount ="22.943" />
</Node>
</Node>
</Node>
<Node score="" recordCount="86">
<SimplePredicate field="hours-per-week" operator="greatherThan" value="47" />
<ScoreDistribution value="&lt;=50K" recordCount ="29.673" />
<ScoreDistribution value="&gt;50K" recordCount ="47.895" />
<Node score="&gt;50K" recordCount="0">
<SimplePredicate field="education" operator="equal" value="10th" />
<ScoreDistribution value="&lt;=50K" recordCount ="0.000" />
<ScoreDistribution value="&gt;50K" recordCount ="0.000" />
</Node>
<Node score="&gt;50K" recordCount="0">
<SimplePredicate field="education" operator="equal" value="11th" />
<ScoreDistribution value="&lt;=50K" recordCount ="0.000" />
<ScoreDistribution value="&gt;50K" recordCount ="0.000" />
</Node>
<Node score="&gt;50K" recordCount="0">
<SimplePredicate field="education" operator="equal" value="12th" />
<ScoreDistribution value="&lt;=50K" recordCount ="0.000" />
<ScoreDistribution value="&gt;50K" recordCount ="0.000" />
</Node>
<Node score="&gt;50K" recordCount="0">
<SimplePredicate field="education" operator="equal" value="1st-4th" />
<ScoreDistribution value="&lt;=50K" recordCount ="0.000" />
<ScoreDistribution value="&gt;50K" recordCount ="0.000" />
</Node>
<Node score="&gt;50K" recordCount="0">
<SimplePredicate field="education" operator="equal" value="5th-6th" />
<ScoreDistribution value="&lt;=50K" recordCount ="0.000" />
<ScoreDistribution value="&gt;50K" recordCount ="0.000" />
</Node>
<Node score="&gt;50K" recordCount="0">
<SimplePredicate field="education" operator="equal" value="7th-8th" />
<ScoreDistribution value="&lt;=50K" recordCount ="0.000" />
<ScoreDistribution value="&gt;50K" recordCount ="0.000" />
</Node>
<Node score="&gt;50K" recordCount="0">
<SimplePredicate field="education" operator="equal" value="9th" />
<ScoreDistribution value="&lt;=50K" recordCount ="0.000" />
<ScoreDistribution value="&gt;50K" recordCount ="0.000" />
</Node>
<Node score="&gt;50K" recordCount="0">
<SimplePredicate field="education" operator="equal" value="Assoc-acdm" />
<ScoreDistribution value="&lt;=50K" recordCount ="0.000" />
<ScoreDistribution value="&gt;50K" recordCount ="0.000" />
</Node>
<Node score="&lt;=50K" recordCount="21">
<SimplePredicate field="education" operator="equal" value="Assoc-voc" />
<ScoreDistribution value="&lt;=50K" recordCount ="11.000" />
<ScoreDistribution value="&gt;50K" recordCount ="6.616" />
</Node>
<Node score="&gt;50K" recordCount="0">
<SimplePredicate field="education" operator="equal" value="Bachelors" />
<ScoreDistribution value="&lt;=50K" recordCount ="0.000" />
<ScoreDistribution value="&gt;50K" recordCount ="0.000" />
</Node>
<Node score="&gt;50K" recordCount="0">
<SimplePredicate field="education" operator="equal" value="Doctorate" />
<ScoreDistribution value="&lt;=50K" recordCount ="0.000" />
<ScoreDistribution value="&gt;50K" recordCount ="0.000" />
</Node>
<Node score="&gt;50K" recordCount="0">
<SimplePredicate field="education" operator="equal" value="HS-grad" />
<ScoreDistribution value="&lt;=50K" recordCount ="0.000" />
<ScoreDistribution value="&gt;50K" recordCount ="0.000" />
</Node>
<Node score="&gt;50K" recordCount="0">
<SimplePredicate field="education" operator="equal" value="Masters" />
<ScoreDistribution value="&lt;=50K" recordCount ="0.000" />
<ScoreDistribution value="&gt;50K" recordCount ="0.000" />
</Node>
<Node score="&gt;50K" recordCount="0">
<SimplePredicate field="education" operator="equal" value="Preschool" />
<ScoreDistribution value="&lt;=50K" recordCount ="0.000" />
<ScoreDistribution value="&gt;50K" recordCount ="0.000" />
</Node>
<Node score="&gt;50K" recordCount="0">
<SimplePredicate field="education" operator="equal" value="Prof-school" />
<ScoreDistribution value="&lt;=50K" recordCount ="0.000" />
<ScoreDistribution value="&gt;50K" recordCount ="0.000" />
</Node>
<Node score="&gt;50K" recordCount="65">
<SimplePredicate field="education" operator="equal" value="Some-college" />
<ScoreDistribution value="&lt;=50K" recordCount ="18.673" />
<ScoreDistribution value="&gt;50K" recordCount ="41.279" />
</Node>
</Node>
</Node>
</Node>
<Node score="&lt;=50K" recordCount="0">
<SimplePredicate field="relationship" operator="equal" value="Not-in-family" />
<ScoreDistribution value="&lt;=50K" recordCount ="0.000" />
<ScoreDistribution value="&gt;50K" recordCount ="0.000" />
</Node>
<Node score="&lt;=50K" recordCount="0">
<SimplePredicate field="relationship" operator="equal" value="Other-relative" />
<ScoreDistribution value="&lt;=50K" recordCount ="0.000" />
<ScoreDistribution value="&gt;50K" recordCount ="0.000" />
</Node>
<Node score="&lt;=50K" recordCount="1">
<SimplePredicate field="relationship" operator="equal" value="Own-child" />
<ScoreDistribution value="&lt;=50K" recordCount ="0.168" />
<ScoreDistribution value="&gt;50K" recordCount ="0.000" />
</Node>
<Node score="&lt;=50K" recordCount="0">
<SimplePredicate field="relationship" operator="equal" value="Unmarried" />
<ScoreDistribution value="&lt;=50K" recordCount ="0.000" />
<ScoreDistribution value="&gt;50K" recordCount ="0.000" />
</Node>
<Node score="&lt;=50K" recordCount="16">
<SimplePredicate field="relationship" operator="equal" value="Wife" />
<ScoreDistribution value="&lt;=50K" recordCount ="5.010" />
<ScoreDistribution value="&gt;50K" recordCount ="1.841" />
</Node>
</Node>
<Node score="" recordCount="85">
<SimplePredicate field="workclass" operator="equal" value="Self-emp-inc" />
<ScoreDistribution value="&lt;=50K" recordCount ="16.261" />
<ScoreDistribution value="&gt;50K" recordCount ="9.114" />
<Node score="" recordCount="67">
<SimplePredicate field="education-num" operator="lessOrEqual" value="10" />
<ScoreDistribution value="&lt;=50K" recordCount ="12.220" />
<ScoreDistribution value="&gt;50K" recordCount ="8.048" />
<Node score="" recordCount="57">
<SimplePredicate field="hours-per-week" operator="lessOrEqual" value="59" />
<ScoreDistribution value="&lt;=50K" recordCount ="6.253" />
<ScoreDistribution value="&gt;50K" recordCount ="8.040" />
<Node score="&lt;=50K" recordCount="42">
<SimplePredicate field="hours-per-week" operator="lessOrEqual" value="42" />
<ScoreDistribution value="&lt;=50K" recordCount ="6.204" />
<ScoreDistribution value="&gt;50K" recordCount ="3.007" />
</Node>
<Node score="&gt;50K" recordCount="15">
<SimplePredicate field="hours-per-week" operator="greatherThan" value="42" />
<ScoreDistribution value="&lt;=50K" recordCount ="0.049" />
<ScoreDistribution value="&gt;50K" recordCount ="5.033" />
</Node>
</Node>
<Node score="&lt;=50K" recordCount="10">
<SimplePredicate field="hours-per-week" operator="greatherThan" value="59" />
<ScoreDistribution value="&lt;=50K" recordCount ="5.967" />
<ScoreDistribution value="&gt;50K" recordCount ="0.008" />
</Node>
</Node>
<Node score="&lt;=50K" recordCount="18">
<SimplePredicate field="education-num" operator="greatherThan" value="10" />
<ScoreDistribution value="&lt;=50K" recordCount ="4.041" />
<ScoreDistribution value="&gt;50K" recordCount ="1.065" />
</Node>
</Node>
<Node score="&lt;=50K" recordCount="151">
<SimplePredicate field="workclass" operator="equal" value="Self-emp-not-inc" />
<ScoreDistribution value="&lt;=50K" recordCount ="73.107" />
<ScoreDistribution value="&gt;50K" recordCount ="19.625" />
</Node>
<Node score="&lt;=50K" recordCount="70">
<SimplePredicate field="workclass" operator="equal" value="State-gov" />
<ScoreDistribution value="&lt;=50K" recordCount ="6.070" />
<ScoreDistribution value="&gt;50K" recordCount ="4.068" />
</Node>
<Node score="&lt;=50K" recordCount="60">
<SimplePredicate field="workclass" operator="equal" value="Without-pay" />
<ScoreDistribution value="&lt;=50K" recordCount ="0.000" />
<ScoreDistribution value="&gt;50K" recordCount ="0.000" />
</Node>
</Node>
</Node>
<Node score="" recordCount="626">
<SimplePredicate field="occupation" operator="equal" value="Exec-managerial" />
<ScoreDistribution value="&lt;=50K" recordCount ="237.216" />
<ScoreDistribution value="&gt;50K" recordCount ="333.030" />
<Node score="&gt;50K" recordCount="92">
<SimplePredicate field="workclass" operator="equal" value="Federal-gov" />
<ScoreDistribution value="&lt;=50K" recordCount ="6.328" />
<ScoreDistribution value="&gt;50K" recordCount ="19.183" />
</Node>
<Node score="&gt;50K" recordCount="107">
<SimplePredicate field="workclass" operator="equal" value="Local-gov" />
<ScoreDistribution value="&lt;=50K" recordCount ="19.525" />
<ScoreDistribution value="&gt;50K" recordCount ="21.293" />
</Node>
<Node score="&gt;50K" recordCount="67">
<SimplePredicate field="workclass" operator="equal" value="Never-worked" />
<ScoreDistribution value="&lt;=50K" recordCount ="0.000" />
<ScoreDistribution value="&gt;50K" recordCount ="0.000" />
</Node>
<Node score="" recordCount="391">
<SimplePredicate field="workclass" operator="equal" value="Private" />
<ScoreDistribution value="&lt;=50K" recordCount ="126.192" />
<ScoreDistribution value="&gt;50K" recordCount ="204.369" />
<Node score="&gt;50K" recordCount="3">
<SimplePredicate field="race" operator="equal" value="Amer-Indian-Eskimo" />
<ScoreDistribution value="&lt;=50K" recordCount ="0.099" />
<ScoreDistribution value="&gt;50K" recordCount ="2.000" />
</Node>
<Node score="&lt;=50K" recordCount="6">
<SimplePredicate field="race" operator="equal" value="Asian-Pac-Islander" />
<ScoreDistribution value="&lt;=50K" recordCount ="3.036" />
<ScoreDistribution value="&gt;50K" recordCount ="1.099" />
</Node>
<Node score="&gt;50K" recordCount="14">
<SimplePredicate field="race" operator="equal" value="Black" />
<ScoreDistribution value="&lt;=50K" recordCount ="4.198" />
<ScoreDistribution value="&gt;50K" recordCount ="6.198" />
</Node>
<Node score="&gt;50K" recordCount="0">
<SimplePredicate field="race" operator="equal" value="Other" />
<ScoreDistribution value="&lt;=50K" recordCount ="0.000" />
<ScoreDistribution value="&gt;50K" recordCount ="0.000" />
</Node>
<Node score="" recordCount="368">
<SimplePredicate field="race" operator="equal" value="White" />
<ScoreDistribution value="&lt;=50K" recordCount ="118.859" />
<ScoreDistribution value="&gt;50K" recordCount ="195.072" />
<Node score="" recordCount="163">
<SimplePredicate field="hours-per-week" operator="lessOrEqual" value="41" />
<ScoreDistribution value="&lt;=50K" recordCount ="60.771" />
<ScoreDistribution value="&gt;50K" recordCount ="67.984" />
<Node score="" recordCount="139">
<SimplePredicate field="relationship" operator="equal" value="Husband" />
<ScoreDistribution value="&lt;=50K" recordCount ="57.276" />
<ScoreDistribution value="&gt;50K" recordCount ="54.687" />
<Node score="&gt;50K" recordCount="114">
<SimplePredicate field="education-num" operator="lessOrEqual" value="10" />
<ScoreDistribution value="&lt;=50K" recordCount ="42.979" />
<ScoreDistribution value="&gt;50K" recordCount ="47.588" />
</Node>
<Node score="&lt;=50K" recordCount="25">
<SimplePredicate field="education-num" operator="greatherThan" value="10" />
<ScoreDistribution value="&lt;=50K" recordCount ="14.297" />
<ScoreDistribution value="&gt;50K" recordCount ="7.099" />
</Node>
</Node>
<Node score="&gt;50K" recordCount="0">
<SimplePredicate field="relationship" operator="equal" value="Not-in-family" />
<ScoreDistribution value="&lt;=50K" recordCount ="0.000" />
<ScoreDistribution value="&gt;50K" recordCount ="0.000" />
</Node>
<Node score="&lt;=50K" recordCount="1">
<SimplePredicate field="relationship" operator="equal" value="Other-relative" />
<ScoreDistribution value="&lt;=50K" recordCount ="1.000" />
<ScoreDistribution value="&gt;50K" recordCount ="0.000" />
</Node>
<Node score="&gt;50K" recordCount="2">
<SimplePredicate field="relationship" operator="equal" value="Own-child" />
<ScoreDistribution value="&lt;=50K" recordCount ="0.099" />
<ScoreDistribution value="&gt;50K" recordCount ="1.000" />
</Node>
<Node score="&gt;50K" recordCount="0">
<SimplePredicate field="relationship" operator="equal" value="Unmarried" />
<ScoreDistribution value="&lt;=50K" recordCount ="0.000" />
<ScoreDistribution value="&gt;50K" recordCount ="0.000" />
</Node>
<Node score="&gt;50K" recordCount="21">
<SimplePredicate field="relationship" operator="equal" value="Wife" />
<ScoreDistribution value="&lt;=50K" recordCount ="2.396" />
<ScoreDistribution value="&gt;50K" recordCount ="12.297" />
</Node>
</Node>
<Node score="" recordCount="205">
<SimplePredicate field="hours-per-week" operator="greatherThan" value="41" />
<ScoreDistribution value="&lt;=50K" recordCount ="58.089" />
<ScoreDistribution value="&gt;50K" recordCount ="127.089" />
<Node score="&gt;50K" recordCount="179">
<SimplePredicate field="relationship" operator="equal" value="Husband" />
<ScoreDistribution value="&lt;=50K" recordCount ="48.891" />
<ScoreDistribution value="&gt;50K" recordCount ="113.891" />
</Node>
<Node score="&gt;50K" recordCount="0">
<SimplePredicate field="relationship" operator="equal" value="Not-in-family" />
<ScoreDistribution value="&lt;=50K" recordCount ="0.000" />
<ScoreDistribution value="&gt;50K" recordCount ="0.000" />
</Node>
<Node score="&gt;50K" recordCount="1">
<SimplePredicate field="relationship" operator="equal" value="Other-relative" />
<ScoreDistribution value="&lt;=50K" recordCount ="0.000" />
<ScoreDistribution value="&gt;50K" recordCount ="1.000" />
</Node>
<Node score="&lt;=50K" recordCount="1">
<SimplePredicate field="relationship" operator="equal" value="Own-child" />
<ScoreDistribution value="&lt;=50K" recordCount ="1.000" />
<ScoreDistribution value="&gt;50K" recordCount ="0.000" />
</Node>
<Node score="&gt;50K" recordCount="0">
<SimplePredicate field="relationship" operator="equal" value="Unmarried" />
<ScoreDistribution value="&lt;=50K" recordCount ="0.000" />
<ScoreDistribution value="&gt;50K" recordCount ="0.000" />
</Node>
<Node score="" recordCount="24">
<SimplePredicate field="relationship" operator="equal" value="Wife" />
<ScoreDistribution value="&lt;=50K" recordCount ="8.198" />
<ScoreDistribution value="&gt;50K" recordCount ="12.198" />
<Node score="&gt;50K" recordCount="11">
<SimplePredicate field="hours-per-week" operator="lessOrEqual" value="49" />
<ScoreDistribution value="&lt;=50K" recordCount ="1.000" />
<ScoreDistribution value="&gt;50K" recordCount ="9.099" />
</Node>
<Node score="" recordCount="13">
<SimplePredicate field="hours-per-week" operator="greatherThan" value="49" />
<ScoreDistribution value="&lt;=50K" recordCount ="7.198" />
<ScoreDistribution value="&gt;50K" recordCount ="3.099" />
<Node score="&gt;50K" recordCount="4">
<SimplePredicate field="fnlwgt" operator="lessOrEqual" value="107897" />
<ScoreDistribution value="&lt;=50K" recordCount ="1.000" />
<ScoreDistribution value="&gt;50K" recordCount ="3.000" />
</Node>
<Node score="&lt;=50K" recordCount="9">
<SimplePredicate field="fnlwgt" operator="greatherThan" value="107897" />
<ScoreDistribution value="&lt;=50K" recordCount ="6.198" />
<ScoreDistribution value="&gt;50K" recordCount ="0.099" />
</Node>
</Node>
</Node>
</Node>
</Node>
</Node>
<Node score="" recordCount="149">
<SimplePredicate field="workclass" operator="equal" value="Self-emp-inc" />
<ScoreDistribution value="&lt;=50K" recordCount ="28.075" />
<ScoreDistribution value="&gt;50K" recordCount ="55.542" />
<Node score="&gt;50K" recordCount="0">
<SimplePredicate field="education" operator="equal" value="10th" />
<ScoreDistribution value="&lt;=50K" recordCount ="0.000" />
<ScoreDistribution value="&gt;50K" recordCount ="0.000" />
</Node>
<Node score="&gt;50K" recordCount="0">
<SimplePredicate field="education" operator="equal" value="11th" />
<ScoreDistribution value="&lt;=50K" recordCount ="0.000" />
<ScoreDistribution value="&gt;50K" recordCount ="0.000" />
</Node>
<Node score="&gt;50K" recordCount="0">
<SimplePredicate field="education" operator="equal" value="12th" />
<ScoreDistribution value="&lt;=50K" recordCount ="0.000" />
<ScoreDistribution value="&gt;50K" recordCount ="0.000" />
</Node>
<Node score="&gt;50K" recordCount="0">
<SimplePredicate field="education" operator="equal" value="1st-4th" />
<ScoreDistribution value="&lt;=50K" recordCount ="0.000" />
<ScoreDistribution value="&gt;50K" recordCount ="0.000" />
</Node>
<Node score="&gt;50K" recordCount="0">
<SimplePredicate field="education" operator="equal" value="5th-6th" />
<ScoreDistribution value="&lt;=50K" recordCount ="0.000" />
<ScoreDistribution value="&gt;50K" recordCount ="0.000" />
</Node>
<Node score="&gt;50K" recordCount="0">
<SimplePredicate field="education" operator="equal" value="7th-8th" />
<ScoreDistribution value="&lt;=50K" recordCount ="0.000" />
<ScoreDistribution value="&gt;50K" recordCount ="0.000" />
</Node>
<Node score="&gt;50K" recordCount="0">
<SimplePredicate field="education" operator="equal" value="9th" />
<ScoreDistribution value="&lt;=50K" recordCount ="0.000" />
<ScoreDistribution value="&gt;50K" recordCount ="0.000" />
</Node>
<Node score="&gt;50K" recordCount="0">
<SimplePredicate field="education" operator="equal" value="Assoc-acdm" />
<ScoreDistribution value="&lt;=50K" recordCount ="0.000" />
<ScoreDistribution value="&gt;50K" recordCount ="0.000" />
</Node>
<Node score="&gt;50K" recordCount="30">
<SimplePredicate field="education" operator="equal" value="Assoc-voc" />
<ScoreDistribution value="&lt;=50K" recordCount ="5.150" />
<ScoreDistribution value="&gt;50K" recordCount ="10.225" />
</Node>
<Node score="&gt;50K" recordCount="0">
<SimplePredicate field="education" operator="equal" value="Bachelors" />
<ScoreDistribution value="&lt;=50K" recordCount ="0.000" />
<ScoreDistribution value="&gt;50K" recordCount ="0.000" />
</Node>
<Node score="&gt;50K" recordCount="0">
<SimplePredicate field="education" operator="equal" value="Doctorate" />
<ScoreDistribution value="&lt;=50K" recordCount ="0.000" />
<ScoreDistribution value="&gt;50K" recordCount ="0.000" />
</Node>
<Node score="&gt;50K" recordCount="0">
<SimplePredicate field="education" operator="equal" value="HS-grad" />
<ScoreDistribution value="&lt;=50K" recordCount ="0.000" />
<ScoreDistribution value="&gt;50K" recordCount ="0.000" />
</Node>
<Node score="&gt;50K" recordCount="0">
<SimplePredicate field="education" operator="equal" value="Masters" />
<ScoreDistribution value="&lt;=50K" recordCount ="0.000" />
<ScoreDistribution value="&gt;50K" recordCount ="0.000" />
</Node>
<Node score="&gt;50K" recordCount="0">
<SimplePredicate field="education" operator="equal" value="Preschool" />
<ScoreDistribution value="&lt;=50K" recordCount ="0.000" />
<ScoreDistribution value="&gt;50K" recordCount ="0.000" />
</Node>
<Node score="&gt;50K" recordCount="0">
<SimplePredicate field="education" operator="equal" value="Prof-school" />
<ScoreDistribution value="&lt;=50K" recordCount ="0.000" />
<ScoreDistribution value="&gt;50K" recordCount ="0.000" />
</Node>
<Node score="" recordCount="119">
<SimplePredicate field="education" operator="equal" value="Some-college" />
<ScoreDistribution value="&lt;=50K" recordCount ="22.925" />
<ScoreDistribution value="&gt;50K" recordCount ="45.317" />
<Node score="" recordCount="34">
<SimplePredicate field="fnlwgt" operator="lessOrEqual" value="124692" />
<ScoreDistribution value="&lt;=50K" recordCount ="11.325" />
<ScoreDistribution value="&gt;50K" recordCount ="6.043" />
<Node score="&lt;=50K" recordCount="23">
<SimplePredicate field="hours-per-week" operator="lessOrEqual" value="47" />
<ScoreDistribution value="&lt;=50K" recordCount ="7.300" />
<ScoreDistribution value="&gt;50K" recordCount ="0.100" />
</Node>
<Node score="&gt;50K" recordCount="11">
<SimplePredicate field="hours-per-week" operator="greatherThan" value="47" />
<ScoreDistribution value="&lt;=50K" recordCount ="4.025" />
<ScoreDistribution value="&gt;50K" recordCount ="5.943" />
</Node>
</Node>
<Node score="&gt;50K" recordCount="85">
<SimplePredicate field="fnlwgt" operator="greatherThan" value="124692" />
<ScoreDistribution value="&lt;=50K" recordCount ="11.599" />
<ScoreDistribution value="&gt;50K" recordCount ="39.274" />
</Node>
</Node>
</Node>
<Node score="&lt;=50K" recordCount="133">
<SimplePredicate field="workclass" operator="equal" value="Self-emp-not-inc" />
<ScoreDistribution value="&lt;=50K" recordCount ="45.808" />
<ScoreDistribution value="&gt;50K" recordCount ="21.482" />
</Node>
<Node score="" recordCount="89">
<SimplePredicate field="workclass" operator="equal" value="State-gov" />
<ScoreDistribution value="&lt;=50K" recordCount ="11.289" />
<ScoreDistribution value="&gt;50K" recordCount ="11.161" />
<Node score="" recordCount="71">
<SimplePredicate field="relationship" operator="equal" value="Husband" />
<ScoreDistribution value="&lt;=50K" recordCount ="11.221" />
<ScoreDistribution value="&gt;50K" recordCount ="9.121" />
<Node score="&lt;=50K" recordCount="23">
<SimplePredicate field="age" operator="lessOrEqual" value="45" />
<ScoreDistribution value="&lt;=50K" recordCount ="8.067" />
<ScoreDistribution value="&gt;50K" recordCount ="1.027" />
</Node>
<Node score="&gt;50K" recordCount="48">
<SimplePredicate field="age" operator="greatherThan" value="45" />
<ScoreDistribution value="&lt;=50K" recordCount ="3.154" />
<ScoreDistribution value="&gt;50K" recordCount ="8.094" />
</Node>
</Node>
<Node score="&lt;=50K" recordCount="0">
<SimplePredicate field="relationship" operator="equal" value="Not-in-family" />
<ScoreDistribution value="&lt;=50K" recordCount ="0.000" />
<ScoreDistribution value="&gt;50K" recordCount ="0.000" />
</Node>
<Node score="&lt;=50K" recordCount="0">
<SimplePredicate field="relationship" operator="equal" value="Other-relative" />
<ScoreDistribution value="&lt;=50K" recordCount ="0.000" />
<ScoreDistribution value="&gt;50K" recordCount ="0.000" />
</Node>
<Node score="&lt;=50K" recordCount="1">
<SimplePredicate field="relationship" operator="equal" value="Own-child" />
<ScoreDistribution value="&lt;=50K" recordCount ="0.007" />
<ScoreDistribution value="&gt;50K" recordCount ="0.000" />
</Node>
<Node score="&lt;=50K" recordCount="0">
<SimplePredicate field="relationship" operator="equal" value="Unmarried" />
<ScoreDistribution value="&lt;=50K" recordCount ="0.000" />
<ScoreDistribution value="&gt;50K" recordCount ="0.000" />
</Node>
<Node score="&gt;50K" recordCount="17">
<SimplePredicate field="relationship" operator="equal" value="Wife" />
<ScoreDistribution value="&lt;=50K" recordCount ="0.060" />
<ScoreDistribution value="&gt;50K" recordCount ="2.040" />
</Node>
</Node>
<Node score="&gt;50K" recordCount="67">
<SimplePredicate field="workclass" operator="equal" value="Without-pay" />
<ScoreDistribution value="&lt;=50K" recordCount ="0.000" />
<ScoreDistribution value="&gt;50K" recordCount ="0.000" />
</Node>
</Node>
<Node score="&lt;=50K" recordCount="205">
<SimplePredicate field="occupation" operator="equal" value="Farming-fishing" />
<ScoreDistribution value="&lt;=50K" recordCount ="110.810" />
<ScoreDistribution value="&gt;50K" recordCount ="30.009" />
</Node>
<Node score="&lt;=50K" recordCount="145">
<SimplePredicate field="occupation" operator="equal" value="Handlers-cleaners" />
<ScoreDistribution value="&lt;=50K" recordCount ="64.790" />
<ScoreDistribution value="&gt;50K" recordCount ="14.569" />
</Node>
<Node score="" recordCount="248">
<SimplePredicate field="occupation" operator="equal" value="Machine-op-inspct" />
<ScoreDistribution value="&lt;=50K" recordCount ="121.315" />
<ScoreDistribution value="&gt;50K" recordCount ="63.266" />
<Node score="&lt;=50K" recordCount="3">
<SimplePredicate field="race" operator="equal" value="Amer-Indian-Eskimo" />
<ScoreDistribution value="&lt;=50K" recordCount ="2.055" />
<ScoreDistribution value="&gt;50K" recordCount ="0.000" />
</Node>
<Node score="&gt;50K" recordCount="6">
<SimplePredicate field="race" operator="equal" value="Asian-Pac-Islander" />
<ScoreDistribution value="&lt;=50K" recordCount ="0.052" />
<ScoreDistribution value="&gt;50K" recordCount ="3.998" />
</Node>
<Node score="&lt;=50K" recordCount="15">
<SimplePredicate field="race" operator="equal" value="Black" />
<ScoreDistribution value="&lt;=50K" recordCount ="8.111" />
<ScoreDistribution value="&gt;50K" recordCount ="3.111" />
</Node>
<Node score="&gt;50K" recordCount="1">
<SimplePredicate field="race" operator="equal" value="Other" />
<ScoreDistribution value="&lt;=50K" recordCount ="0.000" />
<ScoreDistribution value="&gt;50K" recordCount ="1.000" />
</Node>
<Node score="&lt;=50K" recordCount="223">
<SimplePredicate field="race" operator="equal" value="White" />
<ScoreDistribution value="&lt;=50K" recordCount ="111.098" />
<ScoreDistribution value="&gt;50K" recordCount ="55.157" />
</Node>
</Node>
<Node score="&lt;=50K" recordCount="194">
<SimplePredicate field="occupation" operator="equal" value="Other-service" />
<ScoreDistribution value="&lt;=50K" recordCount ="99.607" />
<ScoreDistribution value="&gt;50K" recordCount ="29.871" />
</Node>
<Node score="&lt;=50K" recordCount="67">
<SimplePredicate field="occupation" operator="equal" value="Priv-house-serv" />
<ScoreDistribution value="&lt;=50K" recordCount ="0.000" />
<ScoreDistribution value="&gt;50K" recordCount ="0.000" />
</Node>
<Node score="" recordCount="305">
<SimplePredicate field="occupation" operator="equal" value="Prof-specialty" />
<ScoreDistribution value="&lt;=50K" recordCount ="110.004" />
<ScoreDistribution value="&gt;50K" recordCount ="132.624" />
<Node score="&lt;=50K" recordCount="6">
<SimplePredicate field="race" operator="equal" value="Amer-Indian-Eskimo" />
<ScoreDistribution value="&lt;=50K" recordCount ="4.073" />
<ScoreDistribution value="&gt;50K" recordCount ="1.000" />
</Node>
<Node score="&gt;50K" recordCount="3">
<SimplePredicate field="race" operator="equal" value="Asian-Pac-Islander" />
<ScoreDistribution value="&lt;=50K" recordCount ="0.068" />
<ScoreDistribution value="&gt;50K" recordCount ="1.073" />
</Node>
<Node score="&gt;50K" recordCount="13">
<SimplePredicate field="race" operator="equal" value="Black" />
<ScoreDistribution value="&lt;=50K" recordCount ="3.145" />
<ScoreDistribution value="&gt;50K" recordCount ="6.145" />
</Node>
<Node score="&lt;=50K" recordCount="2">
<SimplePredicate field="race" operator="equal" value="Other" />
<ScoreDistribution value="&lt;=50K" recordCount ="1.000" />
<ScoreDistribution value="&gt;50K" recordCount ="1.000" />
</Node>
<Node score="" recordCount="281">
<SimplePredicate field="race" operator="equal" value="White" />
<ScoreDistribution value="&lt;=50K" recordCount ="101.718" />
<ScoreDistribution value="&gt;50K" recordCount ="123.406" />
<Node score="" recordCount="234">
<SimplePredicate field="relationship" operator="equal" value="Husband" />
<ScoreDistribution value="&lt;=50K" recordCount ="91.209" />
<ScoreDistribution value="&gt;50K" recordCount ="98.101" />
<Node score="&gt;50K" recordCount="59">
<SimplePredicate field="workclass" operator="equal" value="Federal-gov" />
<ScoreDistribution value="&lt;=50K" recordCount ="2.138" />
<ScoreDistribution value="&gt;50K" recordCount ="9.069" />
</Node>
<Node score="" recordCount="54">
<SimplePredicate field="workclass" operator="equal" value="Local-gov" />
<ScoreDistribution value="&lt;=50K" recordCount ="3.075" />
<ScoreDistribution value="&gt;50K" recordCount ="3.037" />
<Node score="&gt;50K" recordCount="34">
<SimplePredicate field="hours-per-week" operator="lessOrEqual" value="42" />
<ScoreDistribution value="&lt;=50K" recordCount ="1.054" />
<ScoreDistribution value="&gt;50K" recordCount ="3.016" />
</Node>
<Node score="&lt;=50K" recordCount="20">
<SimplePredicate field="hours-per-week" operator="greatherThan" value="42" />
<ScoreDistribution value="&lt;=50K" recordCount ="2.021" />
<ScoreDistribution value="&gt;50K" recordCount ="0.021" />
</Node>
</Node>
<Node score="&gt;50K" recordCount="48">
<SimplePredicate field="workclass" operator="equal" value="Never-worked" />
<ScoreDistribution value="&lt;=50K" recordCount ="0.000" />
<ScoreDistribution value="&gt;50K" recordCount ="0.000" />
</Node>
<Node score="" recordCount="185">
<SimplePredicate field="workclass" operator="equal" value="Private" />
<ScoreDistribution value="&lt;=50K" recordCount ="66.597" />
<ScoreDistribution value="&gt;50K" recordCount ="72.795" />
<Node score="&gt;50K" recordCount="172">
<SimplePredicate field="hours-per-week" operator="lessOrEqual" value="51" />
<ScoreDistribution value="&lt;=50K" recordCount ="59.490" />
<ScoreDistribution value="&gt;50K" recordCount ="71.635" />
</Node>
<Node score="&lt;=50K" recordCount="13">
<SimplePredicate field="hours-per-week" operator="greatherThan" value="51" />
<ScoreDistribution value="&lt;=50K" recordCount ="7.107" />
<ScoreDistribution value="&gt;50K" recordCount ="1.160" />
</Node>
</Node>
<Node score="&lt;=50K" recordCount="51">
<SimplePredicate field="workclass" operator="equal" value="Self-emp-inc" />
<ScoreDistribution value="&lt;=50K" recordCount ="2.038" />
<ScoreDistribution value="&gt;50K" recordCount ="1.019" />
</Node>
<Node score="&lt;=50K" recordCount="65">
<SimplePredicate field="workclass" operator="equal" value="Self-emp-not-inc" />
<ScoreDistribution value="&lt;=50K" recordCount ="12.213" />
<ScoreDistribution value="&gt;50K" recordCount ="5.106" />
</Node>
<Node score="&gt;50K" recordCount="60">
<SimplePredicate field="workclass" operator="equal" value="State-gov" />
<ScoreDistribution value="&lt;=50K" recordCount ="5.150" />
<ScoreDistribution value="&gt;50K" recordCount ="7.075" />
</Node>
<Node score="&gt;50K" recordCount="48">
<SimplePredicate field="workclass" operator="equal" value="Without-pay" />
<ScoreDistribution value="&lt;=50K" recordCount ="0.000" />
<ScoreDistribution value="&gt;50K" recordCount ="0.000" />
</Node>
</Node>
<Node score="&gt;50K" recordCount="0">
<SimplePredicate field="relationship" operator="equal" value="Not-in-family" />
<ScoreDistribution value="&lt;=50K" recordCount ="0.000" />
<ScoreDistribution value="&gt;50K" recordCount ="0.000" />
</Node>
<Node score="&gt;50K" recordCount="0">
<SimplePredicate field="relationship" operator="equal" value="Other-relative" />
<ScoreDistribution value="&lt;=50K" recordCount ="0.000" />
<ScoreDistribution value="&gt;50K" recordCount ="0.000" />
</Node>
<Node score="&lt;=50K" recordCount="1">
<SimplePredicate field="relationship" operator="equal" value="Own-child" />
<ScoreDistribution value="&lt;=50K" recordCount ="0.073" />
<ScoreDistribution value="&gt;50K" recordCount ="0.000" />
</Node>
<Node score="&gt;50K" recordCount="0">
<SimplePredicate field="relationship" operator="equal" value="Unmarried" />
<ScoreDistribution value="&lt;=50K" recordCount ="0.000" />
<ScoreDistribution value="&gt;50K" recordCount ="0.000" />
</Node>
<Node score="&gt;50K" recordCount="46">
<SimplePredicate field="relationship" operator="equal" value="Wife" />
<ScoreDistribution value="&lt;=50K" recordCount ="10.436" />
<ScoreDistribution value="&gt;50K" recordCount ="25.306" />
</Node>
</Node>
</Node>
<Node score="" recordCount="220">
<SimplePredicate field="occupation" operator="equal" value="Protective-serv" />
<ScoreDistribution value="&lt;=50K" recordCount ="79.890" />
<ScoreDistribution value="&gt;50K" recordCount ="76.060" />
<Node score="&lt;=50K" recordCount="2">
<SimplePredicate field="race" operator="equal" value="Amer-Indian-Eskimo" />
<ScoreDistribution value="&lt;=50K" recordCount ="1.047" />
<ScoreDistribution value="&gt;50K" recordCount ="0.000" />
</Node>
<Node score="&lt;=50K" recordCount="4">
<SimplePredicate field="race" operator="equal" value="Asian-Pac-Islander" />
<ScoreDistribution value="&lt;=50K" recordCount ="1.987" />
<ScoreDistribution value="&gt;50K" recordCount ="0.047" />
</Node>
<Node score="&gt;50K" recordCount="18">
<SimplePredicate field="race" operator="equal" value="Black" />
<ScoreDistribution value="&lt;=50K" recordCount ="6.036" />
<ScoreDistribution value="&gt;50K" recordCount ="8.036" />
</Node>
<Node score="&gt;50K" recordCount="2">
<SimplePredicate field="race" operator="equal" value="Other" />
<ScoreDistribution value="&lt;=50K" recordCount ="0.000" />
<ScoreDistribution value="&gt;50K" recordCount ="2.000" />
</Node>
<Node score="" recordCount="194">
<SimplePredicate field="race" operator="equal" value="White" />
<ScoreDistribution value="&lt;=50K" recordCount ="70.821" />
<ScoreDistribution value="&gt;50K" recordCount ="65.978" />
<Node score="" recordCount="64">
<SimplePredicate field="workclass" operator="equal" value="Federal-gov" />
<ScoreDistribution value="&lt;=50K" recordCount ="2.054" />
<ScoreDistribution value="&gt;50K" recordCount ="2.029" />
<Node score="&lt;=50K" recordCount="22">
<SimplePredicate field="age" operator="lessOrEqual" value="46" />
<ScoreDistribution value="&lt;=50K" recordCount ="2.021" />
<ScoreDistribution value="&gt;50K" recordCount ="0.007" />
</Node>
<Node score="&gt;50K" recordCount="42">
<SimplePredicate field="age" operator="greatherThan" value="46" />
<ScoreDistribution value="&lt;=50K" recordCount ="0.033" />
<ScoreDistribution value="&gt;50K" recordCount ="2.022" />
</Node>
</Node>
<Node score="" recordCount="148">
<SimplePredicate field="workclass" operator="equal" value="Local-gov" />
<ScoreDistribution value="&lt;=50K" recordCount ="38.196" />
<ScoreDistribution value="&gt;50K" recordCount ="51.642" />
<Node score="" recordCount="118">
<SimplePredicate field="education-num" operator="lessOrEqual" value="10" />
<ScoreDistribution value="&lt;=50K" recordCount ="34.042" />
<ScoreDistribution value="&gt;50K" recordCount ="38.397" />
<Node score="" recordCount="88">
<SimplePredicate field="age" operator="lessOrEqual" value="53" />
<ScoreDistribution value="&lt;=50K" recordCount ="28.552" />
<ScoreDistribution value="&gt;50K" recordCount ="38.121" />
<Node score="" recordCount="84">
<SimplePredicate field="capital-gain" operator="lessOrEqual" value="1506" />
<ScoreDistribution value="&lt;=50K" recordCount ="25.552" />
<ScoreDistribution value="&gt;50K" recordCount ="37.121" />
<Node score="&lt;=50K" recordCount="40">
<SimplePredicate field="age" operator="lessOrEqual" value="38" />
<ScoreDistribution value="&lt;=50K" recordCount ="16.337" />
<ScoreDistribution value="&gt;50K" recordCount ="12.031" />
</Node>
<Node score="" recordCount="44">
<SimplePredicate field="age" operator="greatherThan" value="38" />
<ScoreDistribution value="&lt;=50K" recordCount ="9.215" />
<ScoreDistribution value="&gt;50K" recordCount ="25.090" />
<Node score="&lt;=50K" recordCount="2">
<SimplePredicate field="hours-per-week" operator="lessOrEqual" value="36" />
<ScoreDistribution value="&lt;=50K" recordCount ="2.000" />
<ScoreDistribution value="&gt;50K" recordCount ="0.000" />
</Node>
<Node score="" recordCount="42">
<SimplePredicate field="hours-per-week" operator="greatherThan" value="36" />
<ScoreDistribution value="&lt;=50K" recordCount ="7.215" />
<ScoreDistribution value="&gt;50K" recordCount ="25.090" />
<Node score="" recordCount="9">
<SimplePredicate field="fnlwgt" operator="lessOrEqual" value="121253" />
<ScoreDistribution value="&lt;=50K" recordCount ="4.061" />
<ScoreDistribution value="&gt;50K" recordCount ="2.031" />
<Node score="&gt;50K" recordCount="2">
<SimplePredicate field="fnlwgt" operator="lessOrEqual" value="39411" />
<ScoreDistribution value="&lt;=50K" recordCount ="0.000" />
<ScoreDistribution value="&gt;50K" recordCount ="2.000" />
</Node>
<Node score="&lt;=50K" recordCount="7">
<SimplePredicate field="fnlwgt" operator="greatherThan" value="39411" />
<ScoreDistribution value="&lt;=50K" recordCount ="4.061" />
<ScoreDistribution value="&gt;50K" recordCount ="0.031" />
</Node>
</Node>
<Node score="&gt;50K" recordCount="33">
<SimplePredicate field="fnlwgt" operator="greatherThan" value="121253" />
<ScoreDistribution value="&lt;=50K" recordCount ="3.153" />
<ScoreDistribution value="&gt;50K" recordCount ="23.060" />
</Node>
</Node>
</Node>
</Node>
<Node score="&lt;=50K" recordCount="4">
<SimplePredicate field="capital-gain" operator="greatherThan" value="1506" />
<ScoreDistribution value="&lt;=50K" recordCount ="3.000" />
<ScoreDistribution value="&gt;50K" recordCount ="1.000" />
</Node>
</Node>
<Node score="&lt;=50K" recordCount="30">
<SimplePredicate field="age" operator="greatherThan" value="53" />
<ScoreDistribution value="&lt;=50K" recordCount ="5.491" />
<ScoreDistribution value="&gt;50K" recordCount ="0.276" />
</Node>
</Node>
<Node score="" recordCount="30">
<SimplePredicate field="education-num" operator="greatherThan" value="10" />
<ScoreDistribution value="&lt;=50K" recordCount ="4.153" />
<ScoreDistribution value="&gt;50K" recordCount ="13.245" />
<Node score="&lt;=50K" recordCount="6">
<SimplePredicate field="fnlwgt" operator="lessOrEqual" value="112772" />
<ScoreDistribution value="&lt;=50K" recordCount ="2.061" />
<ScoreDistribution value="&gt;50K" recordCount ="0.061" />
</Node>
<Node score="&gt;50K" recordCount="24">
<SimplePredicate field="fnlwgt" operator="greatherThan" value="112772" />
<ScoreDistribution value="&lt;=50K" recordCount ="2.092" />
<ScoreDistribution value="&gt;50K" recordCount ="13.184" />
</Node>
</Node>
</Node>
<Node score="&lt;=50K" recordCount="60">
<SimplePredicate field="workclass" operator="equal" value="Never-worked" />
<ScoreDistribution value="&lt;=50K" recordCount ="0.000" />
<ScoreDistribution value="&gt;50K" recordCount ="0.000" />
</Node>
<Node score="&lt;=50K" recordCount="77">
<SimplePredicate field="workclass" operator="equal" value="Private" />
<ScoreDistribution value="&lt;=50K" recordCount ="15.231" />
<ScoreDistribution value="&gt;50K" recordCount ="2.124" />
</Node>
<Node score="&gt;50K" recordCount="61">
<SimplePredicate field="workclass" operator="equal" value="Self-emp-inc" />
<ScoreDistribution value="&lt;=50K" recordCount ="0.014" />
<ScoreDistribution value="&gt;50K" recordCount ="1.007" />
</Node>
<Node score="&gt;50K" recordCount="61">
<SimplePredicate field="workclass" operator="equal" value="Self-emp-not-inc" />
<ScoreDistribution value="&lt;=50K" recordCount ="0.014" />
<ScoreDistribution value="&gt;50K" recordCount ="1.007" />
</Node>
<Node score="" recordCount="83">
<SimplePredicate field="workclass" operator="equal" value="State-gov" />
<ScoreDistribution value="&lt;=50K" recordCount ="15.313" />
<ScoreDistribution value="&gt;50K" recordCount ="8.168" />
<Node score="&lt;=50K" recordCount="26">
<SimplePredicate field="age" operator="lessOrEqual" value="41" />
<ScoreDistribution value="&lt;=50K" recordCount ="9.104" />
<ScoreDistribution value="&gt;50K" recordCount ="0.032" />
</Node>
<Node score="" recordCount="57">
<SimplePredicate field="age" operator="greatherThan" value="41" />
<ScoreDistribution value="&lt;=50K" recordCount ="6.208" />
<ScoreDistribution value="&gt;50K" recordCount ="8.136" />
<Node score="&gt;50K" recordCount="43">
<SimplePredicate field="education-num" operator="lessOrEqual" value="10" />
<ScoreDistribution value="&lt;=50K" recordCount ="3.176" />
<ScoreDistribution value="&gt;50K" recordCount ="6.096" />
</Node>
<Node score="" recordCount="14">
<SimplePredicate field="education-num" operator="greatherThan" value="10" />
<ScoreDistribution value="&lt;=50K" recordCount ="3.032" />
<ScoreDistribution value="&gt;50K" recordCount ="2.040" />
<Node score="&gt;50K" recordCount="3">
<SimplePredicate field="age" operator="lessOrEqual" value="44" />
<ScoreDistribution value="&lt;=50K" recordCount ="1.000" />
<ScoreDistribution value="&gt;50K" recordCount ="2.000" />
</Node>
<Node score="&lt;=50K" recordCount="11">
<SimplePredicate field="age" operator="greatherThan" value="44" />
<ScoreDistribution value="&lt;=50K" recordCount ="2.032" />
<ScoreDistribution value="&gt;50K" recordCount ="0.040" />
</Node>
</Node>
</Node>
</Node>
<Node score="&lt;=50K" recordCount="60">
<SimplePredicate field="workclass" operator="equal" value="Without-pay" />
<ScoreDistribution value="&lt;=50K" recordCount ="0.000" />
<ScoreDistribution value="&gt;50K" recordCount ="0.000" />
</Node>
</Node>
</Node>
<Node score="" recordCount="500">
<SimplePredicate field="occupation" operator="equal" value="Sales" />
<ScoreDistribution value="&lt;=50K" recordCount ="234.620" />
<ScoreDistribution value="&gt;50K" recordCount ="206.993" />
<Node score="&lt;=50K" recordCount="5">
<SimplePredicate field="race" operator="equal" value="Amer-Indian-Eskimo" />
<ScoreDistribution value="&lt;=50K" recordCount ="3.132" />
<ScoreDistribution value="&gt;50K" recordCount ="1.000" />
</Node>
<Node score="&gt;50K" recordCount="6">
<SimplePredicate field="race" operator="equal" value="Asian-Pac-Islander" />
<ScoreDistribution value="&lt;=50K" recordCount ="1.125" />
<ScoreDistribution value="&gt;50K" recordCount ="3.132" />
</Node>
<Node score="" recordCount="15">
<SimplePredicate field="race" operator="equal" value="Black" />
<ScoreDistribution value="&lt;=50K" recordCount ="4.264" />
<ScoreDistribution value="&gt;50K" recordCount ="7.264" />
<Node score="&gt;50K" recordCount="4">
<SimplePredicate field="workclass" operator="equal" value="Federal-gov" />
<ScoreDistribution value="&lt;=50K" recordCount ="0.000" />
<ScoreDistribution value="&gt;50K" recordCount ="0.000" />
</Node>
<Node score="&gt;50K" recordCount="4">
<SimplePredicate field="workclass" operator="equal" value="Local-gov" />
<ScoreDistribution value="&lt;=50K" recordCount ="0.000" />
<ScoreDistribution value="&gt;50K" recordCount ="0.000" />
</Node>
<Node score="&gt;50K" recordCount="4">
<SimplePredicate field="workclass" operator="equal" value="Never-worked" />
<ScoreDistribution value="&lt;=50K" recordCount ="0.000" />
<ScoreDistribution value="&gt;50K" recordCount ="0.000" />
</Node>
<Node score="" recordCount="13">
<SimplePredicate field="workclass" operator="equal" value="Private" />
<ScoreDistribution value="&lt;=50K" recordCount ="4.216" />
<ScoreDistribution value="&gt;50K" recordCount ="5.216" />
<Node score="&lt;=50K" recordCount="4">
<SimplePredicate field="age" operator="lessOrEqual" value="41" />
<ScoreDistribution value="&lt;=50K" recordCount ="3.108" />
<ScoreDistribution value="&gt;50K" recordCount ="0.000" />
</Node>
<Node score="&gt;50K" recordCount="9">
<SimplePredicate field="age" operator="greatherThan" value="41" />
<ScoreDistribution value="&lt;=50K" recordCount ="1.108" />
<ScoreDistribution value="&gt;50K" recordCount ="5.216" />
</Node>
</Node>
<Node score="&gt;50K" recordCount="4">
<SimplePredicate field="workclass" operator="equal" value="Self-emp-inc" />
<ScoreDistribution value="&lt;=50K" recordCount ="0.000" />
<ScoreDistribution value="&gt;50K" recordCount ="0.000" />
</Node>
<Node score="&gt;50K" recordCount="6">
<SimplePredicate field="workclass" operator="equal" value="Self-emp-not-inc" />
<ScoreDistribution value="&lt;=50K" recordCount ="0.048" />
<ScoreDistribution value="&gt;50K" recordCount ="2.048" />
</Node>
<Node score="&gt;50K" recordCount="4">
<SimplePredicate field="workclass" operator="equal" value="State-gov" />
<ScoreDistribution value="&lt;=50K" recordCount ="0.000" />
<ScoreDistribution value="&gt;50K" recordCount ="0.000" />
</Node>
<Node score="&gt;50K" recordCount="4">
